{"learner":{"attributes":{"scikit_learn":"{\"_estimator_type\": \"regressor\"}"},"feature_names":["accommodates","room_type_Entire home/apt","availability_365","bedrooms","latitude","room_type_Private room","longitude","minimum_nights","review_scores_rating","calculated_host_listings_count","reviews_per_month","maximum_nights","number_of_reviews","dishwasher","indoor_fireplace","neighbourhood_Woodland","neighbourhood_Upper Rockridge","air_conditioning","hair_dryer","coffee_maker","microwave","neighbourhood_Toler Heights","kitchen","neighbourhood_Highland","neighbourhood_Cleveland Heights","heating","hot_water","dryer","neighbourhood_Maxwell Park","gym","neighbourhood_Bushrod","neighbourhood_Hoover-Foster","washer","neighbourhood_Piedmont Avenue","neighbourhood_Lincoln Highlands","refrigerator","breakfast","pool","neighbourhood_Shafter","neighbourhood_Golden Gate","neighbourhood_Downtown","neighbourhood_Lakeshore","neighbourhood_Laurel","neighbourhood_Dimond","neighbourhood_East Peralta","private_entrance","stove"],"feature_types":["float","i","int","float","float","i","float","float","float","float","float","float","float","int","int","i","i","int","int","int","int","i","int","i","i","int","int","int","i","int","i","i","int","i","i","int","int","int","i","i","i","i","i","i","i","int","int"],"gradient_booster":{"model":{"gbtree_model_param":{"num_parallel_tree":"1","num_trees":"100"},"iteration_indptr":[0,1,2,3,4,5,6,7,8,9,10,11,12,13,14,15,16,17,18,19,20,21,22,23,24,25,26,27,28,29,30,31,32,33,34,35,36,37,38,39,40,41,42,43,44,45,46,47,48,49,50,51,52,53,54,55,56,57,58,59,60,61,62,63,64,65,66,67,68,69,70,71,72,73,74,75,76,77,78,79,80,81,82,83,84,85,86,87,88,89,90,91,92,93,94,95,96,97,98,99,100],"tree_info":[0,0,0,0,0,0,0,0,0,0,0,0,0,0,0,0,0,0,0,0,0,0,0,0,0,0,0,0,0,0,0,0,0,0,0,0,0,0,0,0,0,0,0,0,0,0,0,0,0,0,0,0,0,0,0,0,0,0,0,0,0,0,0,0,0,0,0,0,0,0,0,0,0,0,0,0,0,0,0,0,0,0,0,0,0,0,0,0,0,0,0,0,0,0,0,0,0,0,0,0],"trees":[{"base_weights":[-3.336384E-8,-2.625646E-1,4.4343263E-1,-5.614167E-1,-8.879416E-2,2.2004507E-1,7.71633E-1,-1.4116925E0,-4.7473785E-1,-5.6041118E-2,-4.523461E-1,2.2581753E-3,2.9728925E-1,6.1762106E-1,1.0956377E0,-4.4493333E-1,-1.7933004E-1,-5.353806E-1,-2.0993589E-1,-6.12825E-2,4.554564E-1,-5.0695777E-1,-2.1046638E-2,-1.0931771E-2,1.8631697E-1,2.69856E-1,9.698516E-1,3.813871E-1,6.9146395E-1,1.6502142E-3,1.1712652E0,-7.910106E-2,-1.5974522E-3,1.8812442E-3,-1.7263478E-1,6.1453708E-2,-1.1194406E-1,-2.3161449E-2,1.0599364E-1,-1.5509118E-1,-6.9551473E-3,6.096554E-3,-9.398509E-3,-1.0782334E-2,9.150992E-2,6.591506E-2,1.279605E-1,1.5419085E-1,4.5755473E-1,1.3883186E-2,1.3412607E-1,1.6097446E-1,2.5431186E-1,3.563007E-1,9.901286E-4],"categories":[],"categories_nodes":[],"categories_segments":[],"categories_sizes":[],"default_left":[0,0,0,0,0,0,0,0,0,0,0,0,0,0,0,0,0,0,0,0,0,0,0,0,0,0,0,0,0,0,0,0,0,0,0,0,0,0,0,0,0,0,0,0,0,0,0,0,0,0,0,0,0,0,0],"id":0,"left_children":[1,3,5,7,9,11,13,15,17,19,21,23,25,27,29,-1,31,33,35,37,-1,39,41,43,-1,45,47,49,51,-1,53,-1,-1,-1,-1,-1,-1,-1,-1,-1,-1,-1,-1,-1,-1,-1,-1,-1,-1,-1,-1,-1,-1,-1,-1],"loss_changes":[1.8815039E2,5.2660774E1,4.389306E1,2.6820251E1,7.6311264E0,6.038702E0,1.1449142E1,2.7265015E0,5.347435E0,4.969462E0,1.2376928E0,7.8217137E-1,4.6276836E0,2.6494637E0,6.341774E0,0E0,4.2622894E-2,5.9937057E0,4.476735E0,3.9220498E0,0E0,2.1568012E-1,3.614025E-3,7.537581E-1,0E0,1.9173565E0,1.747756E0,9.0400887E-1,2.5942307E0,0E0,1.3755264E0,0E0,0E0,0E0,0E0,0E0,0E0,0E0,0E0,0E0,0E0,0E0,0E0,0E0,0E0,0E0,0E0,0E0,0E0,0E0,0E0,0E0,0E0,0E0,0E0],"parents":[2147483647,0,0,1,1,2,2,3,3,4,4,5,5,6,6,7,7,8,8,9,9,10,10,11,11,12,12,13,13,14,14,16,16,17,17,18,18,19,19,21,21,22,22,23,23,25,25,26,26,27,27,28,28,30,30],"right_children":[2,4,6,8,10,12,14,16,18,20,22,24,26,28,30,-1,32,34,36,38,-1,40,42,44,-1,46,48,50,52,-1,54,-1,-1,-1,-1,-1,-1,-1,-1,-1,-1,-1,-1,-1,-1,-1,-1,-1,-1,-1,-1,-1,-1,-1,-1],"split_conditions":[1.3862944E0,1E0,1.7917595E0,1E0,4.2904596E0,2E0,4E0,2.7E2,3.62E2,5.897154E0,1.0986123E0,4.787492E0,3.785001E1,-1.2226957E2,4E0,-4.4493333E-1,6.931472E-1,4E0,6.931472E-1,2.8903718E0,4.554564E-1,1E0,1.44E2,2.1972246E0,1.8631697E-1,3.782804E1,-1.2225803E2,1E0,3.781206E1,1.6502142E-3,1E0,-7.910106E-2,-1.5974522E-3,1.8812442E-3,-1.7263478E-1,6.1453708E-2,-1.1194406E-1,-2.3161449E-2,1.0599364E-1,-1.5509118E-1,-6.9551473E-3,6.096554E-3,-9.398509E-3,-1.0782334E-2,9.150992E-2,6.591506E-2,1.279605E-1,1.5419085E-1,4.5755473E-1,1.3883186E-2,1.3412607E-1,1.6097446E-1,2.5431186E-1,3.563007E-1,9.901286E-4],"split_indices":[0,1,0,5,9,3,3,2,2,7,0,7,4,6,2,0,0,2,7,9,0,45,2,9,0,4,6,19,4,0,43,0,0,0,0,0,0,0,0,0,0,0,0,0,0,0,0,0,0,0,0,0,0,0,0],"split_type":[0,0,0,0,0,0,0,0,0,0,0,0,0,0,0,0,0,0,0,0,0,0,0,0,0,0,0,0,0,0,0,0,0,0,0,0,0,0,0,0,0,0,0,0,0,0,0,0,0,0,0,0,0,0,0],"sum_hessian":[1.614E3,1.014E3,6E2,3.72E2,6.42E2,3.58E2,2.42E2,3.3E1,3.39E2,5.9E2,5.2E1,9.4E1,2.64E2,1.66E2,7.6E1,3.1E1,2E0,2.75E2,6.4E1,5.89E2,1E0,4.6E1,6E0,9.3E1,1E0,2.55E2,9E0,4.1E1,1.25E2,5E0,7.1E1,1E0,1E0,1.9E1,2.56E2,1.8E1,4.6E1,5.68E2,2.1E1,4.5E1,1E0,1E0,5E0,8.7E1,6E0,1.95E2,6E1,6E0,3E0,7E0,3.4E1,6.5E1,6E1,7E1,1E0],"tree_param":{"num_deleted":"0","num_feature":"47","num_nodes":"55","size_leaf_vector":"1"}},{"base_weights":[1.003605E-3,-1.8416367E-1,3.1372204E-1,-5.180253E-1,-1.0664642E-1,1.7010471E-1,5.726463E-1,-4.21879E-1,-9.4958675E-1,-2.6516426E-1,-4.8922714E-2,1.5985973E-1,4.2947716E-1,4.4947433E-1,7.774406E-1,-5.8841914E-1,-2.9600865E-1,-1.0529529E0,8.889723E-2,-1.3343386E-1,-3.623803E-1,-2.2923792E-2,-3.1976193E-1,1.3039812E-1,4.5159194E-1,2.9911786E-1,5.361692E-1,1.237631E-3,8.2963586E-1,1.1327362E-3,-1.8782364E-1,-3.6195677E-2,-1.23534605E-1,-5.8483746E-2,-3.2251647E-1,1.5473843E-3,5.1017262E-2,-7.357316E-2,2.5219496E-2,-1.13948606E-1,1.438839E-1,-8.289712E-3,3.8713798E-1,-1.0749545E-1,-4.561309E-3,3.9006554E-4,5.2224096E-2,6.5772824E-2,2.635973E-1,-1.0043135E-2,1.108528E-1,9.710372E-2,1.843397E-1,2.3030071E-1,3.93924E-1],"categories":[],"categories_nodes":[],"categories_segments":[],"categories_sizes":[],"default_left":[0,0,0,0,0,0,0,0,0,0,0,0,0,0,0,0,0,0,0,0,0,0,0,0,0,0,0,0,0,0,0,0,0,0,0,0,0,0,0,0,0,0,0,0,0,0,0,0,0,0,0,0,0,0,0],"id":1,"left_children":[1,3,5,7,9,11,13,15,17,19,21,23,-1,25,27,29,31,33,35,37,39,41,43,45,47,49,51,-1,53,-1,-1,-1,-1,-1,-1,-1,-1,-1,-1,-1,-1,-1,-1,-1,-1,-1,-1,-1,-1,-1,-1,-1,-1,-1,-1],"loss_changes":[9.3574715E1,2.621299E1,2.225138E1,7.524563E0,7.5359735E0,4.785618E0,5.0486984E0,3.1378918E0,3.7433014E0,2.7690334E0,4.2598352E0,3.2587442E0,0E0,1.6124E0,3.1852875E0,1.4965858E0,1.8180647E0,3.782997E-1,2.6308075E-2,2.3308778E0,2.0332909E0,3.461688E0,6.16909E-1,1.9847999E0,3.2803545E0,1.2297854E0,1.2152748E0,0E0,1.2088432E0,0E0,0E0,0E0,0E0,0E0,0E0,0E0,0E0,0E0,0E0,0E0,0E0,0E0,0E0,0E0,0E0,0E0,0E0,0E0,0E0,0E0,0E0,0E0,0E0,0E0,0E0],"parents":[2147483647,0,0,1,1,2,2,3,3,4,4,5,5,6,6,7,7,8,8,9,9,10,10,11,11,13,13,14,14,15,15,16,16,17,17,18,18,19,19,20,20,21,21,22,22,23,23,24,24,25,25,26,26,28,28],"right_children":[2,4,6,8,10,12,14,16,18,20,22,24,-1,26,28,30,32,34,36,38,40,42,44,46,48,50,52,-1,54,-1,-1,-1,-1,-1,-1,-1,-1,-1,-1,-1,-1,-1,-1,-1,-1,-1,-1,-1,-1,-1,-1,-1,-1,-1,-1],"split_conditions":[1.3862944E0,6.931472E-1,3E0,2.1972246E0,1E0,2.1972246E0,4E0,1E0,2.9957323E0,1E0,4.2904596E0,3.58E2,4.2947716E-1,1.5581446E0,4E0,4E0,6.931472E-1,8.3E1,1E0,3.28E2,1E0,5.897154E0,1.0986123E0,2E0,3.1780539E0,2.7E1,-1.2226243E2,1.237631E-3,1E0,1.1327362E-3,-1.8782364E-1,-3.6195677E-2,-1.23534605E-1,-5.8483746E-2,-3.2251647E-1,1.5473843E-3,5.1017262E-2,-7.357316E-2,2.5219496E-2,-1.13948606E-1,1.438839E-1,-8.289712E-3,3.8713798E-1,-1.0749545E-1,-4.561309E-3,3.9006554E-4,5.2224096E-2,6.5772824E-2,2.635973E-1,-1.0043135E-2,1.108528E-1,9.710372E-2,1.843397E-1,2.3030071E-1,3.93924E-1],"split_indices":[0,0,3,9,1,0,3,18,9,20,9,2,0,8,2,2,9,2,1,2,21,7,0,3,7,2,6,0,16,0,0,0,0,0,0,0,0,0,0,0,0,0,0,0,0,0,0,0,0,0,0,0,0,0,0],"split_type":[0,0,0,0,0,0,0,0,0,0,0,0,0,0,0,0,0,0,0,0,0,0,0,0,0,0,0,0,0,0,0,0,0,0,0,0,0,0,0,0,0,0,0,0,0,0,0,0,0,0,0,0,0,0,0],"sum_hessian":[1.614E3,1.014E3,6E2,1.9E2,8.24E2,3.87E2,2.13E2,1.57E2,3.3E1,2.19E2,6.05E2,3.85E2,2E0,1.35E2,7.8E1,6.6E1,9.1E1,3E1,3E0,9.4E1,1.25E2,5.53E2,5.2E1,3.51E2,3.4E1,5.1E1,8.4E1,5E0,7.3E1,4E0,6.2E1,3.7E1,5.4E1,1E0,2.9E1,2E0,1E0,6.2E1,3.2E1,1.23E2,2E0,5.52E2,1E0,4.6E1,6E0,8.9E1,2.62E2,2.3E1,1.1E1,9E0,4.2E1,2.4E1,6E1,6.7E1,6E0],"tree_param":{"num_deleted":"0","num_feature":"47","num_nodes":"55","size_leaf_vector":"1"}},{"base_weights":[1.5649161E-3,-8.271619E-2,3.496543E-1,-2.7193582E-1,-2.889234E-3,2.5491858E-1,5.1219535E-1,-7.535461E-1,-2.2477806E-1,-5.440468E-2,9.415681E-2,1.9022681E-1,4.366272E-1,4.8006684E-1,3.8512334E-1,-7.937738E-1,-7.326937E-2,-2.4718441E-1,1.0745148E-1,-1.1525596E-2,-2.3095334E-1,8.596008E-2,4.0387776E-1,3.2689667E-1,1.4093795E-1,1.1853493E-1,5.2909154E-1,5.5146563E-1,2.3486824E-1,-8.462265E-2,-2.4554536E-1,-4.87057E-2,1.5734483E-2,-7.9126984E-2,7.7668205E-2,-1.4424062E-2,3.995557E-2,-4.830277E-3,3.290673E-1,-7.291411E-2,9.2886545E-2,1.3767388E-3,4.4360083E-2,-8.801007E-2,1.05281875E-1,2.1250244E-2,8.267756E-2,-2.5586892E-2,4.9004264E-2,1.862823E-1,5.7434727E-2,1.4957121E-1,3.2315952E-1,-1.3034131E-2,1.20341666E-1],"categories":[],"categories_nodes":[],"categories_segments":[],"categories_sizes":[],"default_left":[0,0,0,0,0,0,0,0,0,0,0,0,0,0,0,0,0,0,0,0,0,0,0,0,0,0,0,0,0,0,0,0,0,0,0,0,0,0,0,0,0,0,0,0,0,0,0,0,0,0,0,0,0,0,0],"id":2,"left_children":[1,3,5,7,9,11,13,15,17,19,21,23,25,27,-1,29,31,33,35,37,39,41,-1,43,45,47,49,51,53,-1,-1,-1,-1,-1,-1,-1,-1,-1,-1,-1,-1,-1,-1,-1,-1,-1,-1,-1,-1,-1,-1,-1,-1,-1,-1],"loss_changes":[4.7408752E1,1.9650593E1,4.71994E0,8.597319E0,4.584545E0,2.2797089E0,2.2344208E0,8.7228394E-1,2.6543121E0,4.531915E0,3.1479528E0,9.6437263E-1,1.4667187E0,1.8312492E0,0E0,1.7374611E-1,4.2112995E-2,2.844328E0,9.8459154E-2,2.4671316E0,8.4014463E-1,1.5961831E0,0E0,6.8455887E-1,1.0377307E0,1.3267271E-1,1.1216125E0,1.8544788E0,1.2668712E0,0E0,0E0,0E0,0E0,0E0,0E0,0E0,0E0,0E0,0E0,0E0,0E0,0E0,0E0,0E0,0E0,0E0,0E0,0E0,0E0,0E0,0E0,0E0,0E0,0E0,0E0],"parents":[2147483647,0,0,1,1,2,2,3,3,4,4,5,5,6,6,7,7,8,8,9,9,10,10,11,11,12,12,13,13,15,15,16,16,17,17,18,18,19,19,20,20,21,21,23,23,24,24,25,25,26,26,27,27,28,28],"right_children":[2,4,6,8,10,12,14,16,18,20,22,24,26,28,-1,30,32,34,36,38,40,42,-1,44,46,48,50,52,54,-1,-1,-1,-1,-1,-1,-1,-1,-1,-1,-1,-1,-1,-1,-1,-1,-1,-1,-1,-1,-1,-1,-1,-1,-1,-1],"split_conditions":[1.609438E0,1E0,1.9459101E0,1E0,1E0,1E0,1E0,2.7E2,2.6390574E0,1.7917595E0,3.785262E1,-1.7719568E0,3.779352E1,4.276666E0,3.8512334E-1,8.3E1,6.931472E-1,1E0,1E0,5.897154E0,1E0,-1.2225831E2,4.0387776E-1,1E0,3.782707E1,1E0,2.0794415E0,1E0,1.5727739E0,-8.462265E-2,-2.4554536E-1,-4.87057E-2,1.5734483E-2,-7.9126984E-2,7.7668205E-2,-1.4424062E-2,3.995557E-2,-4.830277E-3,3.290673E-1,-7.291411E-2,9.2886545E-2,1.3767388E-3,4.4360083E-2,-8.801007E-2,1.05281875E-1,2.1250244E-2,8.267756E-2,-2.5586892E-2,4.9004264E-2,1.862823E-1,5.7434727E-2,1.4957121E-1,3.2315952E-1,-1.3034131E-2,1.20341666E-1],"split_indices":[0,1,0,5,13,14,41,2,9,9,4,10,4,12,0,2,0,33,25,7,39,6,0,1,4,2,7,16,8,0,0,0,0,0,0,0,0,0,0,0,0,0,0,0,0,0,0,0,0,0,0,0,0,0,0],"split_type":[0,0,0,0,0,0,0,0,0,0,0,0,0,0,0,0,0,0,0,0,0,0,0,0,0,0,0,0,0,0,0,0,0,0,0,0,0,0,0,0,0,0,0,0,0,0,0,0,0,0,0,0,0,0,0],"sum_hessian":[1.614E3,1.3E3,3.14E2,3.85E2,9.15E2,2E2,1.14E2,3.3E1,3.52E2,5.98E2,3.17E2,1.49E2,5.1E1,1.11E2,3E0,3.1E1,2E0,3.3E2,2.2E1,4.82E2,1.16E2,3.16E2,1E0,3.8E1,1.11E2,1.2E1,3.9E1,8.5E1,2.6E1,2E0,2.9E1,1E0,1E0,3.2E2,1E1,3E0,1.9E1,4.81E2,1E0,1.14E2,2E0,1.37E2,1.79E2,1E0,3.7E1,7.4E1,3.7E1,2E0,1E1,3E1,9E0,7.9E1,6E0,1E1,1.6E1],"tree_param":{"num_deleted":"0","num_feature":"47","num_nodes":"55","size_leaf_vector":"1"}},{"base_weights":[2.2150993E-3,-1.1170632E-1,1.4612953E-1,-2.813364E-1,-6.6044725E-2,7.553279E-2,2.8265435E-1,-1.6052952E-1,-4.1232717E-1,-7.039377E-2,7.2133434E-1,6.320777E-2,7.824831E-1,-1.7258635E-1,3.0090117E-1,-1.8154618E-1,5.865304E-1,8.228779E-2,-4.3601394E-1,-1.7132275E-1,-3.9708126E-2,-1.6662279E-3,4.3355042E-1,2.4341075E-2,1.8548992E-1,3.5108495E-1,4.1533554E-1,-1.5792942E-2,-5.8797527E-2,2.7929777E-1,8.099526E-1,-9.7205006E-2,-3.4471985E-2,2.2824433E-1,3.569434E-2,-5.5174828E-3,3.3616662E-2,-1.4259465E-1,-4.5230873E-2,1.8730488E-1,-5.5474795E-2,-4.022304E-2,7.2294157E-3,-2.9956056E-2,2.9206254E-2,4.7875304E-2,-9.745631E-4,6.7025083E-3,9.795381E-2,2.4694635E-2,1.1651273E-1,4.0058844E-2,1.05244495E-1,-3.0563357E-3,3.1372017E-1],"categories":[],"categories_nodes":[],"categories_segments":[],"categories_sizes":[],"default_left":[0,0,0,0,0,0,0,0,0,0,0,0,0,0,0,0,0,0,0,0,0,0,0,0,0,0,0,0,0,0,0,0,0,0,0,0,0,0,0,0,0,0,0,0,0,0,0,0,0,0,0,0,0,0,0],"id":3,"left_children":[1,3,5,7,9,11,13,15,17,19,21,23,25,27,29,31,33,35,37,39,41,43,-1,45,47,49,-1,-1,-1,51,53,-1,-1,-1,-1,-1,-1,-1,-1,-1,-1,-1,-1,-1,-1,-1,-1,-1,-1,-1,-1,-1,-1,-1,-1],"loss_changes":[2.6494146E1,6.9679317E0,6.8603296E0,2.9563065E0,2.4889112E0,4.063161E0,2.0704594E0,1.6922538E0,1.1020184E0,2.1890204E0,2.0957363E0,2.205492E0,1.591445E0,1.7755598E-2,2.3471336E0,9.0269136E-1,1.5393662E-1,1.7045878E-2,9.036541E-1,1.9000502E0,3.284842E0,3.888879E-2,0E0,1.3214023E0,2.569558E0,2.8166413E-2,0E0,0E0,0E0,2.3091927E0,1.7510171E0,0E0,0E0,0E0,0E0,0E0,0E0,0E0,0E0,0E0,0E0,0E0,0E0,0E0,0E0,0E0,0E0,0E0,0E0,0E0,0E0,0E0,0E0,0E0,0E0],"parents":[2147483647,0,0,1,1,2,2,3,3,4,4,5,5,6,6,7,7,8,8,9,9,10,10,11,11,12,12,13,13,14,14,15,15,16,16,17,17,18,18,19,19,20,20,21,21,23,23,24,24,25,25,29,29,30,30],"right_children":[2,4,6,8,10,12,14,16,18,20,22,24,26,28,30,32,34,36,38,40,42,44,-1,46,48,50,-1,-1,-1,52,54,-1,-1,-1,-1,-1,-1,-1,-1,-1,-1,-1,-1,-1,-1,-1,-1,-1,-1,-1,-1,-1,-1,-1,-1],"split_conditions":[1.0986123E0,6.931472E-1,1.7917595E0,1.0986123E0,1E0,3.785262E1,4E0,1E0,1E0,-1.2227022E2,7.6E1,3.782869E1,1.97E2,1E0,2.6390574E0,1E0,1E0,3.7795063E1,1E0,3.7795403E1,3.780314E1,5.5E1,4.3355042E-1,1E0,-1.22263214E2,8E1,4.1533554E-1,-1.5792942E-2,-5.8797527E-2,-1.2225534E2,1.55E2,-9.7205006E-2,-3.4471985E-2,2.2824433E-1,3.569434E-2,-5.5174828E-3,3.3616662E-2,-1.4259465E-1,-4.5230873E-2,1.8730488E-1,-5.5474795E-2,-4.022304E-2,7.2294157E-3,-2.9956056E-2,2.9206254E-2,4.7875304E-2,-9.745631E-4,6.7025083E-3,9.795381E-2,2.4694635E-2,1.1651273E-1,4.0058844E-2,1.05244495E-1,-3.0563357E-3,3.1372017E-1],"split_indices":[0,0,0,9,15,4,2,24,2,6,2,4,2,19,0,25,1,4,1,4,4,2,0,26,6,2,0,0,0,6,2,0,0,0,0,0,0,0,0,0,0,0,0,0,0,0,0,0,0,0,0,0,0,0,0],"split_type":[0,0,0,0,0,0,0,0,0,0,0,0,0,0,0,0,0,0,0,0,0,0,0,0,0,0,0,0,0,0,0,0,0,0,0,0,0,0,0,0,0,0,0,0,0,0,0,0,0,0,0,0,0,0,0],"sum_hessian":[1.614E3,9.01E2,7.13E2,1.9E2,7.11E2,4.71E2,2.42E2,1E2,9E1,7.08E2,3E0,4.64E2,7E0,9E0,2.33E2,9.8E1,2E0,4E0,8.6E1,1.64E2,5.44E2,2E0,1E0,3.53E2,1.11E2,5E0,2E0,2E0,7E0,2.25E2,8E0,3E1,6.8E1,1E0,1E0,1E0,3E0,7.5E1,1.1E1,2E0,1.62E2,2.19E2,3.25E2,1E0,1E0,5.9E1,2.94E2,5.2E1,5.9E1,1E0,4E0,7.5E1,1.5E2,2E0,6E0],"tree_param":{"num_deleted":"0","num_feature":"47","num_nodes":"55","size_leaf_vector":"1"}},{"base_weights":[2.5373944E-3,-6.488383E-2,1.3071789E-1,-2.0008409E-1,-3.734043E-2,8.6714864E-2,2.6629552E-1,-1.0378883E-1,-2.941562E-1,-4.098648E-2,2.3169062E-1,7.677931E-2,5.9128225E-1,2.1207382E-1,6.597036E-1,-1.19487405E-1,1.940077E-1,-3.2369316E-1,7.642322E-3,-4.3678872E-2,7.5885516E-1,1.0843925E-1,-4.559928E-2,2.400736E-1,-2.3738066E-2,2.6396674E-1,-8.658648E-3,1.6716385E-2,6.962544E-1,-5.8924075E-2,-7.391078E-3,-2.1882735E-2,-1.07251965E-1,-2.5722958E-2,4.3743003E-2,-1.3991488E-2,1.8394025E-1,1.2465836E-2,3.29019E-1,1.6869918E-2,6.24588E-2,-4.4684347E-2,-2.9754748E-3,-1.3592721E-2,2.9105903E-3,4.883494E-2,1.12442836E-1,-3.7225872E-2,7.13122E-2,1.424514E-1,2.4919169E-1],"categories":[],"categories_nodes":[],"categories_segments":[],"categories_sizes":[],"default_left":[0,0,0,0,0,0,0,0,0,0,0,0,0,0,0,0,0,0,0,0,0,0,0,0,0,0,0,0,0,0,0,0,0,0,0,0,0,0,0,0,0,0,0,0,0,0,0,0,0,0,0],"id":4,"left_children":[1,3,5,7,9,11,13,15,17,19,-1,21,23,25,27,29,-1,31,33,35,37,39,41,-1,43,45,47,-1,49,-1,-1,-1,-1,-1,-1,-1,-1,-1,-1,-1,-1,-1,-1,-1,-1,-1,-1,-1,-1,-1,-1],"loss_changes":[1.3965449E1,3.936112E0,3.2998724E0,1.5909762E0,2.6323614E0,2.0701535E0,2.7611446E0,1.1376053E0,8.047519E-1,1.9239101E0,0E0,1.6128614E0,1.0471284E0,1.3882742E0,3.1442022E-1,6.4454806E-1,0E0,6.691799E-1,1.2862796E-1,1.7313514E0,6.815032E-1,1.7069063E0,3.156548E-1,0E0,2.603592E-3,1.0381026E0,7.119945E-1,0E0,5.1905155E-2,0E0,0E0,0E0,0E0,0E0,0E0,0E0,0E0,0E0,0E0,0E0,0E0,0E0,0E0,0E0,0E0,0E0,0E0,0E0,0E0,0E0,0E0],"parents":[2147483647,0,0,1,1,2,2,3,3,4,4,5,5,6,6,7,7,8,8,9,9,11,11,12,12,13,13,14,14,15,15,17,17,18,18,19,19,20,20,21,21,22,22,24,24,25,25,26,26,28,28],"right_children":[2,4,6,8,10,12,14,16,18,20,-1,22,24,26,28,30,-1,32,34,36,38,40,42,-1,44,46,48,-1,50,-1,-1,-1,-1,-1,-1,-1,-1,-1,-1,-1,-1,-1,-1,-1,-1,-1,-1,-1,-1,-1,-1],"split_conditions":[2E0,6.931472E-1,1E0,1.0986123E0,1.9459101E0,1E0,3.784436E1,1E0,3.1481075E-1,1E0,2.3169062E-1,2.7080503E0,2E0,2.0794415E0,1.0986123E0,2E0,1.940077E-1,8.3E1,1E0,1E0,1E0,1.5933086E0,7.9E1,2.400736E-1,1.609438E0,3.780826E1,-1.2219206E2,1.6716385E-2,1.5973654E0,-5.8924075E-2,-7.391078E-3,-2.1882735E-2,-1.07251965E-1,-2.5722958E-2,4.3743003E-2,-1.3991488E-2,1.8394025E-1,1.2465836E-2,3.29019E-1,1.6869918E-2,6.24588E-2,-4.4684347E-2,-2.9754748E-3,-1.3592721E-2,2.9105903E-3,4.883494E-2,1.12442836E-1,-3.7225872E-2,7.13122E-2,1.424514E-1,2.4919169E-1],"split_indices":[3,0,14,9,0,41,4,24,10,23,0,7,26,7,0,27,0,2,1,15,2,8,2,0,0,4,6,0,8,0,0,0,0,0,0,0,0,0,0,0,0,0,0,0,0,0,0,0,0,0,0],"split_type":[0,0,0,0,0,0,0,0,0,0,0,0,0,0,0,0,0,0,0,0,0,0,0,0,0,0,0,0,0,0,0,0,0,0,0,0,0,0,0,0,0,0,0,0,0,0,0,0,0,0,0],"sum_hessian":[1.614E3,1.058E3,5.56E2,1.78E2,8.8E2,4.21E2,1.35E2,8.9E1,8.9E1,8.77E2,3E0,4.14E2,7E0,1.2E2,1.5E1,8.8E1,1E0,8.1E1,8E0,8.75E2,2E0,3.29E2,8.5E1,5E0,2E0,9.7E1,2.3E1,1E0,1.4E1,4.8E1,4E1,1E1,7.1E1,5E0,3E0,8.72E2,3E0,1E0,1E0,2.17E2,1.12E2,2.1E1,6.4E1,1E0,1E0,5.2E1,4.5E1,1.6E1,7E0,7E0,7E0],"tree_param":{"num_deleted":"0","num_feature":"47","num_nodes":"51","size_leaf_vector":"1"}},{"base_weights":[2.7819518E-3,-2.4452627E-2,1.7289399E-1,-1.1634453E-1,1.038323E-2,6.48292E-2,2.3649791E-1,-1.4784415E-1,4.00359E-2,-1.3639916E-1,2.5050184E-2,1.7356547E-2,4.5850617E-1,1.0305647E-1,3.6472893E-1,1.7387807E-1,-1.6766103E-1,2.2079027E-1,-1.1170485E-1,1.4035994E-1,-1.6084239E-1,1.0971743E-2,1.7478432E-1,-4.522361E-2,2.977275E-1,-1.6178943E-2,5.293019E-1,-6.582832E-2,1.4645317E-1,4.604348E-1,2.185831E-1,5.9600506E-2,2.6116325E-2,-5.412521E-2,6.6477016E-2,1.530545E-1,2.1741305E-2,1.04529075E-2,-6.920559E-2,-1.8918324E-2,6.560314E-2,-7.389264E-2,-2.2681598E-2,3.0682137E-2,-4.846446E-3,4.0119126E-2,2.733337E-1,-4.3355312E-2,2.2852061E-2,5.245277E-2,1.4518556E-1,7.000652E-2,1.767175E-1,-6.558409E-2,2.88118E-3,5.1873483E-2,-3.0855704E-2,1.4988835E-1,5.792832E-2,9.7930385E-3,8.9015126E-2],"categories":[],"categories_nodes":[],"categories_segments":[],"categories_sizes":[],"default_left":[0,0,0,0,0,0,0,0,0,0,0,0,0,0,0,0,0,0,0,0,0,0,0,0,0,0,0,0,0,0,0,0,0,0,0,0,0,0,0,0,0,0,0,0,0,0,0,0,0,0,0,0,0,0,0,0,0,0,0,0,0],"id":5,"left_children":[1,3,5,7,9,11,13,15,17,19,21,23,25,27,29,31,33,35,37,39,41,43,45,47,49,-1,51,53,55,57,59,-1,-1,-1,-1,-1,-1,-1,-1,-1,-1,-1,-1,-1,-1,-1,-1,-1,-1,-1,-1,-1,-1,-1,-1,-1,-1,-1,-1,-1,-1],"loss_changes":[7.4864087E0,4.4603863E0,1.5174236E0,1.892549E0,2.1799488E0,1.5619087E0,2.3579993E0,2.0629454E0,1.8074706E0,6.4494526E-1,1.9374633E0,1.3469342E0,3.5504973E-1,5.226737E-1,8.924351E-1,2.360034E-2,1.5345688E0,1.250696E0,6.3574564E-1,1.4124091E-1,6.005945E-1,2.0870426E0,2.2662582E0,7.704117E-1,2.3576295E-1,0E0,4.0180683E-3,1.7497365E-1,3.8717353E-1,3.4359455E-1,4.2616022E-1,0E0,0E0,0E0,0E0,0E0,0E0,0E0,0E0,0E0,0E0,0E0,0E0,0E0,0E0,0E0,0E0,0E0,0E0,0E0,0E0,0E0,0E0,0E0,0E0,0E0,0E0,0E0,0E0,0E0,0E0],"parents":[2147483647,0,0,1,1,2,2,3,3,4,4,5,5,6,6,7,7,8,8,9,9,10,10,11,11,12,12,13,13,14,14,15,15,16,16,17,17,18,18,19,19,20,20,21,21,22,22,23,23,24,24,26,26,27,27,28,28,29,29,30,30],"right_children":[2,4,6,8,10,12,14,16,18,20,22,24,26,28,30,32,34,36,38,40,42,44,46,48,50,-1,52,54,56,58,60,-1,-1,-1,-1,-1,-1,-1,-1,-1,-1,-1,-1,-1,-1,-1,-1,-1,-1,-1,-1,-1,-1,-1,-1,-1,-1,-1,-1,-1,-1],"split_conditions":[3E0,1E0,3.780497E1,3.62E2,1E0,1E0,-1.2225534E2,4E0,6.931472E-1,6.931472E-1,3.58E2,3.49E2,3.778511E1,3.8E1,-1.2222374E2,2.3025851E0,1E0,6.931472E-1,1.0986123E0,3.3322046E0,1.5830939E0,3.4339871E0,3.78488E1,1.9459101E0,3.778849E1,-1.6178943E-2,-1.2218444E2,1.4398351E0,4.8202815E0,2.0794415E0,4.828314E0,5.9600506E-2,2.6116325E-2,-5.412521E-2,6.6477016E-2,1.530545E-1,2.1741305E-2,1.04529075E-2,-6.920559E-2,-1.8918324E-2,6.560314E-2,-7.389264E-2,-2.2681598E-2,3.0682137E-2,-4.846446E-3,4.0119126E-2,2.733337E-1,-4.3355312E-2,2.2852061E-2,5.245277E-2,1.4518556E-1,7.000652E-2,1.767175E-1,-6.558409E-2,2.88118E-3,5.1873483E-2,-3.0855704E-2,1.4988835E-1,5.792832E-2,9.7930385E-3,8.9015126E-2],"split_indices":[3,1,4,2,22,37,6,2,9,12,2,2,4,2,6,9,40,7,7,11,8,11,4,0,4,0,6,8,12,7,11,0,0,0,0,0,0,0,0,0,0,0,0,0,0,0,0,0,0,0,0,0,0,0,0,0,0,0,0,0,0],"split_type":[0,0,0,0,0,0,0,0,0,0,0,0,0,0,0,0,0,0,0,0,0,0,0,0,0,0,0,0,0,0,0,0,0,0,0,0,0,0,0,0,0,0,0,0,0,0,0,0,0,0,0,0,0,0,0,0,0,0,0,0,0],"sum_hessian":[1.614E3,1.392E3,2.22E2,3.82E2,1.01E3,8.3E1,1.39E2,3.18E2,6.4E1,9.1E1,9.19E2,7.5E1,8E0,6.9E1,7E1,1.8E1,3E2,2.9E1,3.5E1,7E0,8.4E1,8.41E2,7.8E1,6.2E1,1.3E1,1E0,7E0,1.4E1,5.5E1,4.1E1,2.9E1,1.3E1,5E0,2.91E2,9E0,9E0,2E1,1.6E1,1.9E1,2E0,5E0,4.1E1,4.3E1,1.92E2,6.49E2,7.5E1,3E0,3.4E1,2.8E1,9E0,4E0,2E0,5E0,4E0,1E1,5E1,5E0,3.5E1,6E0,9E0,2E1],"tree_param":{"num_deleted":"0","num_feature":"47","num_nodes":"61","size_leaf_vector":"1"}},{"base_weights":[2.6757005E-3,-4.3969966E-2,6.159967E-2,-6.9171116E-2,3.2617312E-2,2.5029872E-2,1.6680056E-1,-2.4366356E-2,-1.6380702E-1,2.7419662E-1,-2.3005357E-2,8.830389E-3,1.5447606E-1,1.11820444E-1,3.4448373E-1,-2.8396996E-2,2.7506384E-1,-1.9650482E-1,-1.7855441E-2,1.4720969E-1,5.7939655E-1,1.3434824E-1,-6.1125115E-2,4.6745697E-3,1.9750515E-1,4.9008943E-2,2.4815576E-1,2.4887744E-2,2.087617E-1,8.593496E-2,4.3067437E-1,-1.0021302E-2,1.6561286E-1,2.7001979E-2,-6.262792E-2,-6.5579675E-2,6.841023E-3,2.5534092E-2,1.6352388E-1,-3.2376982E-2,1.9550742E-1,1.2892628E-1,2.185172E-2,-3.2719243E-2,1.6399216E-2,-7.3842396E-4,8.334932E-2,-8.722739E-3,7.728476E-2,-4.965258E-3,8.990924E-2,2.4057006E-2,-6.160626E-2,7.784265E-2,-2.190186E-2,-7.307129E-2,5.2857973E-2,1.0209734E-1,2.1142046E-1],"categories":[],"categories_nodes":[],"categories_segments":[],"categories_sizes":[],"default_left":[0,0,0,0,0,0,0,0,0,0,0,0,0,0,0,0,0,0,0,0,0,0,0,0,0,0,0,0,0,0,0,0,0,0,0,0,0,0,0,0,0,0,0,0,0,0,0,0,0,0,0,0,0,0,0,0,0,0,0],"id":6,"left_children":[1,3,5,7,9,11,13,15,17,19,21,23,25,27,29,31,-1,33,35,37,39,41,43,45,-1,47,49,51,53,55,57,-1,-1,-1,-1,-1,-1,-1,-1,-1,-1,-1,-1,-1,-1,-1,-1,-1,-1,-1,-1,-1,-1,-1,-1,-1,-1,-1,-1],"loss_changes":[4.441613E0,1.7431952E0,2.742708E0,2.8750627E0,3.0162601E0,1.1121225E0,1.7589831E0,1.778783E0,1.0368519E0,1.5424762E0,1.1058974E0,1.2736856E0,5.707656E-1,1.1914904E0,9.2122316E-1,1.3583189E0,0E0,6.437769E-1,3.3962673E-1,7.194969E-1,6.666093E-1,6.228236E-1,8.2748324E-1,9.1877586E-1,0E0,4.7987193E-1,4.2790675E-1,9.84168E-1,9.763408E-1,3.9980322E-1,5.525241E-1,0E0,0E0,0E0,0E0,0E0,0E0,0E0,0E0,0E0,0E0,0E0,0E0,0E0,0E0,0E0,0E0,0E0,0E0,0E0,0E0,0E0,0E0,0E0,0E0,0E0,0E0,0E0,0E0],"parents":[2147483647,0,0,1,1,2,2,3,3,4,4,5,5,6,6,7,7,8,8,9,9,10,10,11,11,12,12,13,13,14,14,15,15,17,17,18,18,19,19,20,20,21,21,22,22,23,23,25,25,26,26,27,27,28,28,29,29,30,30],"right_children":[2,4,6,8,10,12,14,16,18,20,22,24,26,28,30,32,-1,34,36,38,40,42,44,46,-1,48,50,52,54,56,58,-1,-1,-1,-1,-1,-1,-1,-1,-1,-1,-1,-1,-1,-1,-1,-1,-1,-1,-1,-1,-1,-1,-1,-1,-1,-1,-1,-1],"split_conditions":[1.0986123E0,6.55108E0,3.782869E1,1.3862944E0,-3.218876E0,4E0,1E0,1E0,3.5767445E-1,3.53E2,6.931472E-1,2.6390574E0,1.5432981E0,1.5892352E0,-1.2226826E2,1E0,2.7506384E-1,1E0,-1.2227687E2,1E0,1E0,-1.89712E0,1E0,1E0,1.9750515E-1,6.214608E0,-1.2225367E2,4.8202815E0,1E0,6.931472E-1,2.99E2,-1.0021302E-2,1.6561286E-1,2.7001979E-2,-6.262792E-2,-6.5579675E-2,6.841023E-3,2.5534092E-2,1.6352388E-1,-3.2376982E-2,1.9550742E-1,1.2892628E-1,2.185172E-2,-3.2719243E-2,1.6399216E-2,-7.3842396E-4,8.334932E-2,-8.722739E-3,7.728476E-2,-4.965258E-3,8.990924E-2,2.4057006E-2,-6.160626E-2,7.784265E-2,-2.190186E-2,-7.307129E-2,5.2857973E-2,1.0209734E-1,2.1142046E-1],"split_indices":[0,11,4,9,10,3,17,23,10,2,7,0,8,8,6,15,0,2,6,33,3,10,13,41,0,11,6,12,30,12,2,0,0,0,0,0,0,0,0,0,0,0,0,0,0,0,0,0,0,0,0,0,0,0,0,0,0,0,0],"split_type":[0,0,0,0,0,0,0,0,0,0,0,0,0,0,0,0,0,0,0,0,0,0,0,0,0,0,0,0,0,0,0,0,0,0,0,0,0,0,0,0,0,0,0,0,0,0,0,0,0,0,0,0,0,0,0,0,0,0,0],"sum_hessian":[1.614E3,9.01E2,7.13E2,6.78E2,2.23E2,5.3E2,1.83E2,4.61E2,2.17E2,4.1E1,1.82E2,4.72E2,5.8E1,1.41E2,4.2E1,4.6E2,1E0,1.77E2,4E1,3E1,1.1E1,3.5E1,1.47E2,4.7E2,2E0,2.8E1,3E1,7.5E1,6.6E1,1.1E1,3.1E1,4.57E2,3E0,7E0,1.7E2,6E0,3.4E1,2.7E1,3E0,1E0,1E1,5E0,3E1,1.04E2,4.3E1,4.59E2,1.1E1,2.1E1,7E0,5E0,2.5E1,6.1E1,1.4E1,5.6E1,1E1,2E0,9E0,2.5E1,6E0],"tree_param":{"num_deleted":"0","num_feature":"47","num_nodes":"59","size_leaf_vector":"1"}},{"base_weights":[2.844064E-3,-1.2931438E-2,9.7416475E-2,-4.1915726E-2,3.845458E-2,6.245863E-2,2.7332187E-1,-6.910398E-2,6.8642492E-3,-6.749886E-2,5.701809E-2,5.3985354E-2,2.5467017E-1,6.0542506E-1,1.7880099E-1,-4.766173E-2,-1.8735112E-1,8.4699405E-4,6.383937E-1,-8.682476E-2,2.2042856E-1,2.8261743E-2,1.13136336E-1,1.7942578E-1,4.8036464E-2,5.3859547E-2,2.4751641E-1,-1.5620028E-2,3.2008395E-1,-1.9632801E-2,2.5127387E-2,-6.342753E-2,-5.781007E-3,-1.3368631E-3,1.6669002E-1,-2.42054E-2,3.1148258E-1,-4.240133E-2,-2.283721E-3,9.889126E-3,7.771615E-2,-8.066065E-3,1.9686505E-2,2.9284943E-2,1.5751958E-1,7.83054E-3,5.112731E-2,6.3173644E-2,-2.8936245E-2,1.1272767E-1,-2.5063135E-2],"categories":[],"categories_nodes":[],"categories_segments":[],"categories_sizes":[],"default_left":[0,0,0,0,0,0,0,0,0,0,0,0,0,0,0,0,0,0,0,0,0,0,0,0,0,0,0,0,0,0,0,0,0,0,0,0,0,0,0,0,0,0,0,0,0,0,0,0,0,0,0],"id":7,"left_children":[1,3,5,7,9,11,13,15,17,19,21,23,-1,25,27,29,31,33,35,37,39,41,43,-1,45,-1,-1,47,49,-1,-1,-1,-1,-1,-1,-1,-1,-1,-1,-1,-1,-1,-1,-1,-1,-1,-1,-1,-1,-1,-1],"loss_changes":[2.4107223E0,2.064413E0,1.4034107E0,1.175525E0,9.8728234E-1,1.2469374E0,1.0845957E0,1.4337611E0,1.2078829E0,4.3647268E-1,6.842623E-1,5.959711E-1,0E0,6.001866E-1,8.565194E-1,1.134139E0,3.479612E-1,9.3219405E-1,9.4641125E-1,3.0550945E-1,2.766499E-2,5.848432E-1,8.693485E-1,0E0,5.109829E-1,0E0,0E0,2.7629533E-1,4.3588746E-1,0E0,0E0,0E0,0E0,0E0,0E0,0E0,0E0,0E0,0E0,0E0,0E0,0E0,0E0,0E0,0E0,0E0,0E0,0E0,0E0,0E0,0E0],"parents":[2147483647,0,0,1,1,2,2,3,3,4,4,5,5,6,6,7,7,8,8,9,9,10,10,11,11,13,13,14,14,15,15,16,16,17,17,18,18,19,19,20,20,21,21,22,22,24,24,27,27,28,28],"right_children":[2,4,6,8,10,12,14,16,18,20,22,24,-1,26,28,30,32,34,36,38,40,42,44,-1,46,-1,-1,48,50,-1,-1,-1,-1,-1,-1,-1,-1,-1,-1,-1,-1,-1,-1,-1,-1,-1,-1,-1,-1,-1,-1],"split_conditions":[1E0,1E0,3.783788E1,1.5871923E0,1E0,1E0,1E0,7.371641E-1,1E0,3.78481E1,1E0,-1.2230102E2,2.5467017E-1,3.4339871E0,1.5851452E0,3.62E2,2.0794415E0,1E0,7.6E1,2.16E2,-1.22263214E2,-1.2225878E2,-1.2216115E2,1.7942578E-1,4E0,5.3859547E-2,2.4751641E-1,3.3322046E0,1E0,-1.9632801E-2,2.5127387E-2,-6.342753E-2,-5.781007E-3,-1.3368631E-3,1.6669002E-1,-2.42054E-2,3.1148258E-1,-4.240133E-2,-2.283721E-3,9.889126E-3,7.771615E-2,-8.066065E-3,1.9686505E-2,2.9284943E-2,1.5751958E-1,7.83054E-3,5.112731E-2,6.3173644E-2,-2.8936245E-2,1.1272767E-1,-2.5063135E-2],"split_indices":[14,13,4,8,18,28,18,10,15,4,17,6,0,11,8,2,9,23,2,2,6,6,6,0,3,0,0,11,30,0,0,0,0,0,0,0,0,0,0,0,0,0,0,0,0,0,0,0,0,0,0],"split_type":[0,0,0,0,0,0,0,0,0,0,0,0,0,0,0,0,0,0,0,0,0,0,0,0,0,0,0,0,0,0,0,0,0,0,0,0,0,0,0,0,0,0,0,0,0,0,0,0,0,0,0],"sum_hessian":[1.614E3,1.384E3,2.3E2,8.85E2,4.99E2,1.93E2,3.7E1,5.68E2,3.17E2,7.4E1,4.25E2,1.92E2,1E0,7E0,3E1,4.82E2,8.6E1,3.15E2,2E0,7E1,4E0,2.82E2,1.43E2,1E0,1.91E2,3E0,4E0,1.3E1,1.7E1,4.25E2,5.7E1,7.5E1,1.1E1,3.13E2,2E0,1E0,1E0,4.1E1,2.9E1,1E0,3E0,1.14E2,1.68E2,1.39E2,4E0,1.63E2,2.8E1,3E0,1E1,1.5E1,2E0],"tree_param":{"num_deleted":"0","num_feature":"47","num_nodes":"51","size_leaf_vector":"1"}},{"base_weights":[2.9484967E-3,-5.997736E-2,2.3166742E-2,-6.513406E-2,4.5779538E-1,1.4022783E-2,1.2141738E-1,-6.8414606E-2,1.8164979E-1,1.6339855E-1,2.9579403E-2,3.3293564E-2,-4.8898704E-2,-1.362796E-1,1.6982001E-1,-9.486778E-2,1.5612552E-2,2.847068E-2,3.0244154E-1,-7.3152415E-2,1.0122266E-1,-1.7001356E-1,6.051958E-2,1.413555E-1,4.7900146E-1,-3.3901934E-2,1.4469092E-2,5.7566237E-2,-2.4868496E-2,-7.908256E-3,1.7257057E-2,1.1313715E-1,-3.6598638E-2,-5.030564E-2,-1.6862309E-2,3.660689E-2,-5.2556515E-2,-2.0060837E-2,-5.9646748E-2,3.637441E-2,1.8913089E-1,2.8051998E-2,1.8434942E-1],"categories":[],"categories_nodes":[],"categories_segments":[],"categories_sizes":[],"default_left":[0,0,0,0,0,0,0,0,0,0,0,0,0,0,0,0,0,0,0,0,0,0,0,0,0,0,0,0,0,0,0,0,0,0,0,0,0,0,0,0,0,0,0],"id":8,"left_children":[1,3,5,7,9,11,13,15,-1,-1,-1,17,19,21,23,25,27,29,31,33,35,37,-1,39,41,-1,-1,-1,-1,-1,-1,-1,-1,-1,-1,-1,-1,-1,-1,-1,-1,-1,-1],"loss_changes":[2.056074E0,1.0791278E0,1.0970404E0,8.994421E-1,7.1106315E-2,1.3596796E0,1.320357E0,8.661444E-1,0E0,0E0,0E0,1.1051326E0,9.649876E-1,2.2813913E-1,7.067523E-1,7.737498E-1,1.6481606E0,1.3460183E0,5.2147603E-1,3.5419142E-1,2.3410597E-1,3.4248352E-2,0E0,7.299634E-1,3.0817282E-1,0E0,0E0,0E0,0E0,0E0,0E0,0E0,0E0,0E0,0E0,0E0,0E0,0E0,0E0,0E0,0E0,0E0,0E0],"parents":[2147483647,0,0,1,1,2,2,3,3,4,4,5,5,6,6,7,7,11,11,12,12,13,13,14,14,15,15,16,16,17,17,18,18,19,19,20,20,21,21,23,23,24,24],"right_children":[2,4,6,8,10,12,14,16,-1,-1,-1,18,20,22,24,26,28,30,32,34,36,38,-1,40,42,-1,-1,-1,-1,-1,-1,-1,-1,-1,-1,-1,-1,-1,-1,-1,-1,-1,-1],"split_conditions":[1E0,1E0,3.58E2,1E0,2E0,3.0445225E0,1E0,6.9077554E0,1.8164979E-1,1.6339855E-1,2.9579403E-2,-1.2214371E2,1E0,1.0986123E0,1E0,1E0,-1.8325815E0,3.780438E1,1.607436E0,1E0,2E0,-1.2227059E2,6.051958E-2,3.785027E1,1.5368673E0,-3.3901934E-2,1.4469092E-2,5.7566237E-2,-2.4868496E-2,-7.908256E-3,1.7257057E-2,1.1313715E-1,-3.6598638E-2,-5.030564E-2,-1.6862309E-2,3.660689E-2,-5.2556515E-2,-2.0060837E-2,-5.9646748E-2,3.637441E-2,1.8913089E-1,2.8051998E-2,1.8434942E-1],"split_indices":[1,21,2,42,3,7,3,11,0,0,0,6,29,0,41,14,10,4,8,32,19,6,0,4,8,0,0,0,0,0,0,0,0,0,0,0,0,0,0,0,0,0,0],"split_type":[0,0,0,0,0,0,0,0,0,0,0,0,0,0,0,0,0,0,0,0,0,0,0,0,0,0,0,0,0,0,0,0,0,0,0,0,0,0,0,0,0,0,0],"sum_hessian":[1.614E3,3.92E2,1.222E3,3.89E2,3E0,1.119E3,1.03E2,3.88E2,1E0,2E0,1E0,8.57E2,2.62E2,1.6E1,8.7E1,2.95E2,9.3E1,8.43E2,1.4E1,2.26E2,3.6E1,1.5E1,1E0,8.1E1,6E0,2.62E2,3.3E1,3.3E1,6E1,2.92E2,5.51E2,1.2E1,2E0,3.3E1,1.93E2,3.4E1,2E0,4E0,1.1E1,7.9E1,2E0,2E0,4E0],"tree_param":{"num_deleted":"0","num_feature":"47","num_nodes":"43","size_leaf_vector":"1"}},{"base_weights":[2.5651124E-3,-1.3564935E-2,4.985013E-2,-7.8929905E-3,-1.5959966E-1,-1.7296338E-2,9.4052434E-2,-1.4435767E-2,1.16781466E-1,-1.8397416E-1,7.219124E-2,-4.860566E-2,1.08465075E-1,6.486561E-2,1.9296321E-1,-1.9992901E-2,1.3013074E-1,2.070707E-1,2.560916E-2,8.3633065E-2,-2.0730193E-1,2.4292983E-2,5.557466E-3,-9.6181914E-2,3.4469515E-3,-9.429105E-2,1.4803907E-1,1.00691095E-1,-3.685811E-2,3.0318683E-1,1.3277343E-1,-1.3480337E-2,4.360433E-3,2.2247411E-2,1.8880163E-1,2.666706E-2,9.820302E-2,-1.4440028E-2,3.7723303E-2,-1.1775828E-2,4.130378E-2,-6.63913E-2,-9.886659E-3,-4.3429464E-2,2.8290154E-4,1.8940194E-2,-1.9890843E-2,-7.506609E-2,-3.9183428E-3,2.3185533E-2,1.1837683E-1,5.0787657E-2,-3.6446063E-3,-3.3146176E-2,1.7274348E-2,1.5197751E-1,5.1101733E-2,7.248726E-3,5.8536924E-2],"categories":[],"categories_nodes":[],"categories_segments":[],"categories_sizes":[],"default_left":[0,0,0,0,0,0,0,0,0,0,0,0,0,0,0,0,0,0,0,0,0,0,0,0,0,0,0,0,0,0,0,0,0,0,0,0,0,0,0,0,0,0,0,0,0,0,0,0,0,0,0,0,0,0,0,0,0,0,0],"id":9,"left_children":[1,3,5,7,9,11,13,15,17,19,21,23,25,27,29,31,33,35,37,39,41,-1,-1,43,45,47,49,51,53,55,57,-1,-1,-1,-1,-1,-1,-1,-1,-1,-1,-1,-1,-1,-1,-1,-1,-1,-1,-1,-1,-1,-1,-1,-1,-1,-1,-1,-1],"loss_changes":[1.2324522E0,9.968428E-1,1.2214864E0,9.487334E-1,2.6752186E-1,6.510228E-1,7.034323E-1,8.895282E-1,4.7214603E-1,2.7328706E-1,8.5731037E-4,3.2722536E-1,2.787464E-1,7.070616E-1,3.312676E-1,9.169421E-1,1.0989523E0,3.8310504E-1,2.2757933E-1,3.1970333E-2,8.547485E-2,0E0,0E0,3.2572103E-1,2.7062795E-1,7.272856E-2,4.579478E-1,1.1090097E0,3.6098954E-1,4.2712295E-1,2.52616E-1,0E0,0E0,0E0,0E0,0E0,0E0,0E0,0E0,0E0,0E0,0E0,0E0,0E0,0E0,0E0,0E0,0E0,0E0,0E0,0E0,0E0,0E0,0E0,0E0,0E0,0E0,0E0,0E0],"parents":[2147483647,0,0,1,1,2,2,3,3,4,4,5,5,6,6,7,7,8,8,9,9,10,10,11,11,12,12,13,13,14,14,15,15,16,16,17,17,18,18,19,19,20,20,23,23,24,24,25,25,26,26,27,27,28,28,29,29,30,30],"right_children":[2,4,6,8,10,12,14,16,18,20,22,24,26,28,30,32,34,36,38,40,42,-1,-1,44,46,48,50,52,54,56,58,-1,-1,-1,-1,-1,-1,-1,-1,-1,-1,-1,-1,-1,-1,-1,-1,-1,-1,-1,-1,-1,-1,-1,-1,-1,-1,-1,-1],"split_conditions":[3.782804E1,1E0,-1.222641E2,1E0,1.7917595E0,1.6034198E0,1E0,3.65E2,1.3862944E0,1E0,1.9459101E0,6.931472E-1,-1.89712E0,-1.2222532E2,-1.609438E0,1.5871923E0,1E0,6.931472E-1,3.4339871E0,6.931472E-1,3E0,2.4292983E-2,5.557466E-3,3.784436E1,1.609438E0,6.931472E-1,1.0986123E0,1.609438E0,-1.2220585E2,2E0,-1.2224341E2,-1.3480337E-2,4.360433E-3,2.2247411E-2,1.8880163E-1,2.666706E-2,9.820302E-2,-1.4440028E-2,3.7723303E-2,-1.1775828E-2,4.130378E-2,-6.63913E-2,-9.886659E-3,-4.3429464E-2,2.8290154E-4,1.8940194E-2,-1.9890843E-2,-7.506609E-2,-3.9183428E-3,2.3185533E-2,1.1837683E-1,5.0787657E-2,-3.6446063E-3,-3.3146176E-2,1.7274348E-2,1.5197751E-1,5.1101733E-2,7.248726E-3,5.8536924E-2],"split_indices":[4,31,6,37,0,8,14,2,7,2,0,9,10,6,10,8,36,7,7,0,3,0,0,4,7,0,9,7,6,3,6,0,0,0,0,0,0,0,0,0,0,0,0,0,0,0,0,0,0,0,0,0,0,0,0,0,0,0,0],"split_type":[0,0,0,0,0,0,0,0,0,0,0,0,0,0,0,0,0,0,0,0,0,0,0,0,0,0,0,0,0,0,0,0,0,0,0,0,0,0,0,0,0,0,0,0,0,0,0,0,0,0,0,0,0,0,0,0,0,0,0],"sum_hessian":[1.614E3,1.204E3,4.1E2,1.16E3,4.4E1,1.63E2,2.47E2,1.103E3,5.7E1,4E1,4E0,1.31E2,3.2E1,1.92E2,5.5E1,1.063E3,4E1,2.8E1,2.9E1,3E0,3.7E1,3E0,1E0,6.8E1,6.3E1,5E0,2.7E1,1.42E2,5E1,1.8E1,3.7E1,6.17E2,4.46E2,3.7E1,3E0,1.5E1,1.3E1,1.7E1,1.2E1,1E0,2E0,3.4E1,3E0,4.5E1,2.3E1,3.4E1,2.9E1,1E0,4E0,2.2E1,5E0,8.8E1,5.4E1,2.8E1,2.2E1,6E0,1.2E1,1.4E1,2.3E1],"tree_param":{"num_deleted":"0","num_feature":"47","num_nodes":"59","size_leaf_vector":"1"}},{"base_weights":[2.1991944E-3,-1.6349165E-2,3.746044E-2,-1.8244484E-2,1.464308E-1,-3.6776505E-2,6.392119E-2,-7.538683E-2,-3.8865886E-3,-4.3495174E-2,9.006539E-2,3.154452E-1,5.621567E-2,-9.6890725E-2,1.7697497E-1,-4.8163466E-2,2.1728557E-2,-5.306216E-2,1.8698366E-1,2.1967794E-1,2.1098393E-1,8.054908E-2,-1.5665775E-2,-3.262269E-2,1.1327634E-1,-2.9836787E-2,2.101023E-1,-1.8166473E-2,3.504129E-2,3.4895066E-2,8.981849E-5,-1.8501064E-2,5.7506766E-2,1.03451975E-1,6.553674E-3,-3.6971428E-2,7.701898E-2,2.1592228E-2,1.2839006E-1,-2.6473075E-2,2.9710777E-2],"categories":[],"categories_nodes":[],"categories_segments":[],"categories_sizes":[],"default_left":[0,0,0,0,0,0,0,0,0,0,0,0,0,0,0,0,0,0,0,0,0,0,0,0,0,0,0,0,0,0,0,0,0,0,0,0,0,0,0,0,0],"id":10,"left_children":[1,3,5,7,-1,9,11,13,15,17,-1,19,21,23,25,27,29,31,33,-1,35,37,39,-1,-1,-1,-1,-1,-1,-1,-1,-1,-1,-1,-1,-1,-1,-1,-1,-1,-1],"loss_changes":[1.0568842E0,1.0214127E0,1.0965024E0,8.660958E-1,0E0,3.4588867E-1,7.7883625E-1,1.1676209E0,9.5941055E-1,3.29645E-1,0E0,3.679968E-1,7.0091033E-1,1.1432296E0,2.5291207E0,6.407716E-1,1.0864097E0,3.0677792E-1,1.4887524E-1,0E0,1.9982138E-1,8.599503E-1,8.578686E-1,0E0,0E0,0E0,0E0,0E0,0E0,0E0,0E0,0E0,0E0,0E0,0E0,0E0,0E0,0E0,0E0,0E0,0E0],"parents":[2147483647,0,0,1,1,2,2,3,3,5,5,6,6,7,7,8,8,9,9,11,11,12,12,13,13,14,14,15,15,16,16,17,17,18,18,20,20,21,21,22,22],"right_children":[2,4,6,8,-1,10,12,14,16,18,-1,20,22,24,26,28,30,32,34,-1,36,38,40,-1,-1,-1,-1,-1,-1,-1,-1,-1,-1,-1,-1,-1,-1,-1,-1,-1,-1],"split_conditions":[2E0,1.9459101E0,8.3E1,3.779057E1,1.464308E-1,2E0,8.6E1,5.0369525E0,-1.222666E2,1E0,9.006539E-2,1E0,4.8858002E-1,1E0,1.5933086E0,1E0,1.4586151E0,1.7917595E0,1.8E1,2.1967794E-1,6.931472E-1,3.920421E-1,1.5892352E0,-3.262269E-2,1.1327634E-1,-2.9836787E-2,2.101023E-1,-1.8166473E-2,3.504129E-2,3.4895066E-2,8.981849E-5,-1.8501064E-2,5.7506766E-2,1.03451975E-1,6.553674E-3,-3.6971428E-2,7.701898E-2,2.1592228E-2,1.2839006E-1,-2.6473075E-2,2.9710777E-2],"split_indices":[3,0,2,4,0,22,2,12,6,37,0,25,10,21,8,40,8,9,2,0,0,10,8,0,0,0,0,0,0,0,0,0,0,0,0,0,0,0,0,0,0],"split_type":[0,0,0,0,0,0,0,0,0,0,0,0,0,0,0,0,0,0,0,0,0,0,0,0,0,0,0,0,0,0,0,0,0,0,0,0,0,0,0,0,0],"sum_hessian":[1.614E3,1.058E3,5.56E2,1.055E3,3E0,1.46E2,4.1E2,2.11E2,8.44E2,1.44E2,2E0,1.1E1,3.99E2,1.95E2,1.6E1,3.09E2,5.35E2,1.39E2,5E0,1E0,1E1,2.98E2,1.01E2,1.91E2,4E0,1.1E1,5E0,2.88E2,2.1E1,9.8E1,4.37E2,1.35E2,4E0,2E0,3E0,1E0,9E0,2.92E2,6E0,6.2E1,3.9E1],"tree_param":{"num_deleted":"0","num_feature":"47","num_nodes":"41","size_leaf_vector":"1"}},{"base_weights":[2.2276132E-3,-1.02476925E-2,3.9158843E-2,6.274268E-3,-5.710606E-2,3.2539245E-2,2.23129E-1,2.0151656E-2,-5.70318E-2,-4.0461086E-2,-1.934818E-1,2.8410893E-2,3.4886855E-1,3.2402143E-1,-2.328167E-2,3.299739E-2,-6.556266E-2,-7.637983E-2,2.1374859E-1,-4.514422E-2,2.9630268E-1,-2.5202045E-1,1.9644642E-1,8.59752E-2,8.599792E-3,1.4032817E-2,1.2380931E-1,2.5543848E-2,1.1863436E-1,-4.4672206E-2,1.1010456E-1,-5.2667703E-3,1.6670633E-2,-2.884462E-2,2.743965E-1,-5.7532024E-2,-1.4213488E-2,-7.227638E-2,1.2430949E-1,4.3528464E-2,-1.5388662E-2,-2.1372914E-2,1.3276969E-1,-9.3322136E-2,-1.5221885E-2,1.7623687E-2,6.485557E-2,1.0745262E-1,1.5525301E-2,-4.848369E-3,3.8629908E-2,-7.1262363E-3,1.8620968E-2,9.241891E-3,4.0305164E-2],"categories":[],"categories_nodes":[],"categories_segments":[],"categories_sizes":[],"default_left":[0,0,0,0,0,0,0,0,0,0,0,0,0,0,0,0,0,0,0,0,0,0,0,0,0,0,0,0,0,0,0,0,0,0,0,0,0,0,0,0,0,0,0,0,0,0,0,0,0,0,0,0,0,0,0],"id":11,"left_children":[1,3,5,7,9,11,13,15,17,19,21,23,25,27,29,31,33,35,37,39,41,43,45,47,49,-1,-1,51,-1,-1,53,-1,-1,-1,-1,-1,-1,-1,-1,-1,-1,-1,-1,-1,-1,-1,-1,-1,-1,-1,-1,-1,-1,-1,-1],"loss_changes":[7.444776E-1,9.355823E-1,4.8960537E-1,7.865486E-1,7.072122E-1,5.059264E-1,3.5559744E-1,8.1034374E-1,8.598159E-1,4.5812115E-1,8.255881E-1,4.451619E-1,7.710707E-2,2.0309055E-1,1.0017906E-1,7.301114E-1,2.9661193E0,4.9624938E-1,1.1031857E0,3.339346E-1,2.4656296E-1,3.408053E-1,8.902997E-4,9.130473E-1,8.709114E-1,0E0,0E0,6.876395E-3,0E0,0E0,1.6291477E-3,0E0,0E0,0E0,0E0,0E0,0E0,0E0,0E0,0E0,0E0,0E0,0E0,0E0,0E0,0E0,0E0,0E0,0E0,0E0,0E0,0E0,0E0,0E0,0E0],"parents":[2147483647,0,0,1,1,2,2,3,3,4,4,5,5,6,6,7,7,8,8,9,9,10,10,11,11,12,12,13,13,14,14,15,15,16,16,17,17,18,18,19,19,20,20,21,21,22,22,23,23,24,24,27,27,30,30],"right_children":[2,4,6,8,10,12,14,16,18,20,22,24,26,28,30,32,34,36,38,40,42,44,46,48,50,-1,-1,52,-1,-1,54,-1,-1,-1,-1,-1,-1,-1,-1,-1,-1,-1,-1,-1,-1,-1,-1,-1,-1,-1,-1,-1,-1,-1,-1],"split_conditions":[6.214608E0,1.3862944E0,1E0,3.1780539E0,-1.2218938E2,1E0,2E0,1.1085626E0,5.192957E0,2.6390574E0,1.609438E0,1E0,6.931472E-1,3.29E2,1.5727739E0,8.3E1,1.3862944E0,-1.2227171E2,1E0,-1.2229684E2,1E0,2.0794415E0,1.0986123E0,-1.2228093E2,3E0,1.4032817E-2,1.2380931E-1,1E0,1.1863436E-1,-4.4672206E-2,1E0,-5.2667703E-3,1.6670633E-2,-2.884462E-2,2.743965E-1,-5.7532024E-2,-1.4213488E-2,-7.227638E-2,1.2430949E-1,4.3528464E-2,-1.5388662E-2,-2.1372914E-2,1.3276969E-1,-9.3322136E-2,-1.5221885E-2,1.7623687E-2,6.485557E-2,1.0745262E-1,1.5525301E-2,-4.848369E-3,3.8629908E-2,-7.1262363E-3,1.8620968E-2,9.241891E-3,4.0305164E-2],"split_indices":[11,9,33,7,6,39,3,10,7,0,7,20,0,2,8,2,7,6,27,6,2,9,0,6,3,0,0,1,0,0,1,0,0,0,0,0,0,0,0,0,0,0,0,0,0,0,0,0,0,0,0,0,0,0,0],"split_type":[0,0,0,0,0,0,0,0,0,0,0,0,0,0,0,0,0,0,0,0,0,0,0,0,0,0,0,0,0,0,0,0,0,0,0,0,0,0,0,0,0,0,0,0,0,0,0,0,0,0,0,0,0,0,0],"sum_hessian":[1.614E3,1.207E3,4.07E2,8.93E2,3.14E2,3.94E2,1.3E1,7.33E2,1.6E2,2.81E2,3.3E1,3.9E2,4E0,9E0,4E0,6.38E2,9.5E1,1.5E2,1E1,2.78E2,3E0,2.9E1,4E0,9.9E1,2.91E2,1E0,3E0,2E0,7E0,2E0,2E0,1.97E2,4.41E2,9.3E1,2E0,2.9E1,1.21E2,3E0,7E0,8E0,2.7E2,1E0,2E0,2.2E1,7E0,1E0,3E0,1E1,8.9E1,2.42E2,4.9E1,1E0,1E0,1E0,1E0],"tree_param":{"num_deleted":"0","num_feature":"47","num_nodes":"55","size_leaf_vector":"1"}},{"base_weights":[2.0424738E-3,5.816094E-4,2.3645306E-1,-9.82936E-3,3.0975144E-2,-3.8030386E-2,3.431043E-1,2.6146716E-2,-2.0537477E-2,7.6802503E-3,8.402606E-2,2.9904986E-2,4.0763077E-1,6.7535296E-2,-1.8550381E-2,-5.112271E-2,-9.785725E-4,1.1714752E-1,-6.5721124E-3,5.5482563E-2,2.0819797E-1,1.4839548E-1,4.6717837E-2,-2.6134397E-3,4.1034557E-2,-8.318021E-3,1.1650015E-1,1.6617458E-2,-2.0070935E-2,-1.4327123E-2,8.458078E-3,-4.7849768E-4,6.86997E-2,1.1722727E-3,-3.690985E-2,1.2124163E-2,6.881145E-2,-5.2988008E-2,7.597762E-2],"categories":[],"categories_nodes":[],"categories_segments":[],"categories_sizes":[],"default_left":[0,0,0,0,0,0,0,0,0,0,0,0,0,0,0,0,0,0,0,0,0,0,0,0,0,0,0,0,0,0,0,0,0,0,0,0,0,0,0],"id":12,"left_children":[1,3,5,7,9,-1,11,13,15,17,19,-1,21,23,25,27,29,31,33,35,37,-1,-1,-1,-1,-1,-1,-1,-1,-1,-1,-1,-1,-1,-1,-1,-1,-1,-1],"loss_changes":[5.5290645E-1,5.084849E-1,4.308743E-1,4.6166453E-1,5.06039E-1,0E0,8.502281E-2,5.0998896E-1,5.521012E-1,4.4697773E-1,4.314862E-1,0E0,5.4495513E-2,7.5620663E-1,5.0735104E-1,6.088074E-1,7.709978E-1,4.3865564E-1,3.104806E-1,2.6061884E-1,4.4356358E-1,0E0,0E0,0E0,0E0,0E0,0E0,0E0,0E0,0E0,0E0,0E0,0E0,0E0,0E0,0E0,0E0,0E0,0E0],"parents":[2147483647,0,0,1,1,2,2,3,3,4,4,6,6,7,7,8,8,9,9,10,10,12,12,13,13,14,14,15,15,16,16,17,17,18,18,19,19,20,20],"right_children":[2,4,6,8,10,-1,12,14,16,18,20,-1,22,24,26,28,30,32,34,36,38,-1,-1,-1,-1,-1,-1,-1,-1,-1,-1,-1,-1,-1,-1,-1,-1,-1,-1],"split_conditions":[2.6390574E0,3.782804E1,9.5E1,-2.9957323E0,1.5993875E0,-3.8030386E-2,-1.222688E2,6.931472E-1,1.5748465E0,3.783013E1,3.17E2,2.9904986E-2,-1.2219955E2,1E0,-1.2214371E2,-1.609438E0,2.1972246E0,-1.2225628E2,-1.2221016E2,4.8441873E0,1E0,1.4839548E-1,4.6717837E-2,-2.6134397E-3,4.1034557E-2,-8.318021E-3,1.1650015E-1,1.6617458E-2,-2.0070935E-2,-1.4327123E-2,8.458078E-3,-4.7849768E-4,6.86997E-2,1.1722727E-3,-3.690985E-2,1.2124163E-2,6.881145E-2,-5.2988008E-2,7.597762E-2],"split_indices":[0,4,2,10,8,0,6,9,8,4,2,0,6,25,6,10,12,6,6,12,19,0,0,0,0,0,0,0,0,0,0,0,0,0,0,0,0,0,0],"split_type":[0,0,0,0,0,0,0,0,0,0,0,0,0,0,0,0,0,0,0,0,0,0,0,0,0,0,0,0,0,0,0,0,0,0,0,0,0,0,0],"sum_hessian":[1.614E3,1.605E3,9E0,1.196E3,4.09E2,2E0,7E0,2.74E2,9.22E2,2.85E2,1.24E2,2E0,5E0,1.42E2,1.32E2,3.59E2,5.63E2,3.2E1,2.53E2,1.02E2,2.2E1,3E0,2E0,6.8E1,7.4E1,1.3E2,2E0,4.6E1,3.13E2,2.16E2,3.47E2,1.6E1,1.6E1,2.33E2,2E1,9.5E1,7E0,2E0,2E1],"tree_param":{"num_deleted":"0","num_feature":"47","num_nodes":"39","size_leaf_vector":"1"}},{"base_weights":[1.7150047E-3,-5.159365E-3,4.4649005E-2,-1.4248998E-2,2.4874792E-2,-1.1225438E-1,5.6503836E-2,-1.8765718E-2,1.5450768E-1,-1.8390564E-3,8.740966E-2,-1.476388E-2,-2.3549019E-1,7.729494E-2,-3.557286E-2,-2.1381093E-2,1.9009726E-1,1.6614622E-1,-2.3959924E-2,-6.0331873E-3,1.4253432E-1,2.857632E-1,6.38762E-2,-8.126913E-2,1.05311275E-1,-8.332858E-2,2.7210475E-3,1.10426575E-1,9.675612E-3,-2.2572184E-1,-7.392352E-3,-1.1172174E-2,2.044253E-3,-4.2945243E-2,6.893916E-2,2.0526268E-2,5.907872E-2,7.969262E-3,-1.9199662E-2,1.5744258E-1,4.8120245E-2,2.4820227E-2,-1.8735481E-2,-4.9415114E-3,-3.1168127E-2,9.491587E-3,3.5796788E-2,1.0799721E-3,4.354965E-2,-8.536655E-3,4.6511594E-2,-1.8714024E-2,-7.528868E-2,-1.1343567E-2,3.5906248E-2],"categories":[],"categories_nodes":[],"categories_segments":[],"categories_sizes":[],"default_left":[0,0,0,0,0,0,0,0,0,0,0,0,0,0,0,0,0,0,0,0,0,0,0,0,0,0,0,0,0,0,0,0,0,0,0,0,0,0,0,0,0,0,0,0,0,0,0,0,0,0,0,0,0,0,0],"id":13,"left_children":[1,3,5,7,9,11,13,15,17,19,21,23,25,27,29,31,33,35,-1,37,-1,39,41,43,45,-1,-1,47,49,51,53,-1,-1,-1,-1,-1,-1,-1,-1,-1,-1,-1,-1,-1,-1,-1,-1,-1,-1,-1,-1,-1,-1,-1,-1],"loss_changes":[4.768882E-1,3.806427E-1,4.2113692E-1,8.184819E-1,5.4141796E-1,1.8875235E-1,4.0093976E-1,5.738088E-1,8.9647055E-2,4.589588E-1,4.345374E-1,8.841484E-2,7.488534E-2,3.7978923E-1,2.0731269E-1,4.6127817E-1,2.0488462E-1,6.774908E-2,0E0,4.3062338E-1,0E0,2.1549332E-1,2.1480715E-1,8.550815E-3,3.5380572E-4,0E0,0E0,4.2253637E-1,3.203545E-1,4.959017E-3,1.3982545E-1,0E0,0E0,0E0,0E0,0E0,0E0,0E0,0E0,0E0,0E0,0E0,0E0,0E0,0E0,0E0,0E0,0E0,0E0,0E0,0E0,0E0,0E0,0E0,0E0],"parents":[2147483647,0,0,1,1,2,2,3,3,4,4,5,5,6,6,7,7,8,8,9,9,10,10,11,11,12,12,13,13,14,14,15,15,16,16,17,17,19,19,21,21,22,22,23,23,24,24,27,27,28,28,29,29,30,30],"right_children":[2,4,6,8,10,12,14,16,18,20,22,24,26,28,30,32,34,36,-1,38,-1,40,42,44,46,-1,-1,48,50,52,54,-1,-1,-1,-1,-1,-1,-1,-1,-1,-1,-1,-1,-1,-1,-1,-1,-1,-1,-1,-1,-1,-1,-1,-1],"split_conditions":[3E0,1E0,1.1E1,2.9957323E0,1.3862944E0,-1.2224341E2,2.5649493E0,1E0,3.65E2,1E0,3.3322046E0,1E0,1.3862944E0,3.7156355E-1,2.7E1,1.5933086E0,3.1354942E0,8.1E1,-2.3959924E-2,-1.2224341E2,1.4253432E-1,-3.506558E0,2E0,1.7917595E0,1.7917595E0,-8.332858E-2,2.7210475E-3,3.7789894E1,1.6014057E0,1.7917595E0,-1.2219955E2,-1.1172174E-2,2.044253E-3,-4.2945243E-2,6.893916E-2,2.0526268E-2,5.907872E-2,7.969262E-3,-1.9199662E-2,1.5744258E-1,4.8120245E-2,2.4820227E-2,-1.8735481E-2,-4.9415114E-3,-3.1168127E-2,9.491587E-3,3.5796788E-2,1.0799721E-3,4.354965E-2,-8.536655E-3,4.6511594E-2,-1.8714024E-2,-7.528868E-2,-1.1343567E-2,3.5906248E-2],"split_indices":[3,17,2,9,0,6,7,34,2,42,11,2,9,10,2,8,11,2,0,6,0,10,19,0,0,0,0,4,8,0,6,0,0,0,0,0,0,0,0,0,0,0,0,0,0,0,0,0,0,0,0,0,0,0,0],"split_type":[0,0,0,0,0,0,0,0,0,0,0,0,0,0,0,0,0,0,0,0,0,0,0,0,0,0,0,0,0,0,0,0,0,0,0,0,0,0,0,0,0,0,0,0,0,0,0,0,0,0,0,0,0,0,0],"sum_hessian":[1.614E3,1.392E3,2.22E2,1.069E3,3.23E2,1.5E1,2.07E2,1.042E3,2.7E1,2.27E2,9.6E1,9E0,6E0,1.69E2,3.8E1,1.03E3,1.2E1,2.6E1,1E0,2.26E2,1E0,9E0,8.7E1,6E0,3E0,5E0,1E0,1.13E2,5.6E1,4E0,3.4E1,6.59E2,3.71E2,1E0,1.1E1,7E0,1.9E1,1.45E2,8.1E1,2E0,7E0,7.6E1,1.1E1,2E0,4E0,1E0,2E0,2.8E1,8.5E1,4.5E1,1.1E1,1E0,3E0,2.8E1,6E0],"tree_param":{"num_deleted":"0","num_feature":"47","num_nodes":"55","size_leaf_vector":"1"}},{"base_weights":[1.4217319E-3,-8.742395E-4,9.4224945E-2,8.203443E-2,-3.4747245E-3,1.4303195E-1,-4.3014005E-2,1.3692302E-1,-1.710298E-1,-1.3018255E-2,2.3980783E-2,9.280205E-3,1.851675E-1,-1.4869368E-1,1.5202582E-2,-1.1922138E-2,2.0903076E-1,-8.4701896E-2,-2.551403E-2,-1.3823163E-2,1.3508284E-1,3.735298E-2,-4.2040613E-2,-7.8625105E-2,1.1684179E-1,-2.4217447E-2,2.0731688E-1,-1.1486507E-2,-5.18198E-2,9.976685E-2,-5.548935E-2,5.3631093E-2,-6.8445966E-2,7.8895696E-2,-2.4290359E-2,-2.1591758E-2,8.834744E-3,-4.590965E-3,6.805888E-2,8.564245E-3,6.593348E-2,-2.0555139E-2,4.8536506E-2,-2.7849449E-2,-3.2699348E-3,4.221416E-2,6.7838435E-3,-1.9703293E-2,8.805443E-3,7.358215E-2,1.3317376E-2,3.433824E-2,8.3527565E-3,-1.3134002E-3,-2.6431276E-2],"categories":[],"categories_nodes":[],"categories_segments":[],"categories_sizes":[],"default_left":[0,0,0,0,0,0,0,0,0,0,0,0,0,0,0,0,0,0,0,0,0,0,0,0,0,0,0,0,0,0,0,0,0,0,0,0,0,0,0,0,0,0,0,0,0,0,0,0,0,0,0,0,0,0,0],"id":14,"left_children":[1,3,5,7,9,11,13,15,17,19,21,23,25,27,29,31,33,-1,35,37,-1,39,41,43,45,47,49,-1,-1,51,53,-1,-1,-1,-1,-1,-1,-1,-1,-1,-1,-1,-1,-1,-1,-1,-1,-1,-1,-1,-1,-1,-1,-1,-1],"loss_changes":[3.441961E-1,3.4029058E-1,2.673831E-1,6.901542E-1,4.0120655E-1,1.6171706E-1,6.993594E-2,4.3180764E-1,1.385724E-1,4.2984927E-1,3.502965E-1,8.482858E-2,1.07050955E-1,4.0024817E-3,5.336009E-2,6.1805785E-1,4.4375825E-1,0E0,1.4887063E-2,4.0779048E-1,0E0,5.222136E-1,3.726629E-1,3.7988164E-3,5.8158264E-3,8.590668E-3,1.12795234E-1,0E0,0E0,1.0405295E-3,7.949236E-3,0E0,0E0,0E0,0E0,0E0,0E0,0E0,0E0,0E0,0E0,0E0,0E0,0E0,0E0,0E0,0E0,0E0,0E0,0E0,0E0,0E0,0E0,0E0,0E0],"parents":[2147483647,0,0,1,1,2,2,3,3,4,4,5,5,6,6,7,7,8,8,9,9,10,10,11,11,12,12,13,13,14,14,15,15,16,16,18,18,19,19,21,21,22,22,23,23,24,24,25,25,26,26,29,29,30,30],"right_children":[2,4,6,8,10,12,14,16,18,20,22,24,26,28,30,32,34,-1,36,38,-1,40,42,44,46,48,50,-1,-1,52,54,-1,-1,-1,-1,-1,-1,-1,-1,-1,-1,-1,-1,-1,-1,-1,-1,-1,-1,-1,-1,-1,-1,-1,-1],"split_conditions":[1E0,2.3025851E0,3.912023E0,3.8501475E0,6.214608E0,-1.2224323E2,6.931472E-1,1.0986123E0,6.931472E-1,1E0,-1.2219651E2,-1.0788096E0,3.465736E0,1.0986123E0,3.784436E1,3.781227E1,5.9332687E-1,-8.4701896E-2,2E0,5.2983174E0,1.3508284E-1,3.65E2,1E0,1.609438E0,3.784278E1,1.0986123E0,3.24E2,-1.1486507E-2,-5.18198E-2,1.68E2,1.52E2,5.3631093E-2,-6.8445966E-2,7.8895696E-2,-2.4290359E-2,-2.1591758E-2,8.834744E-3,-4.590965E-3,6.805888E-2,8.564245E-3,6.593348E-2,-2.0555139E-2,4.8536506E-2,-2.7849449E-2,-3.2699348E-3,4.221416E-2,6.7838435E-3,-1.9703293E-2,8.805443E-3,7.358215E-2,1.3317376E-2,3.433824E-2,8.3527565E-3,-1.3134002E-3,-2.6431276E-2],"split_indices":[16,11,12,12,11,6,7,12,0,23,6,10,11,0,4,4,10,0,3,7,0,2,37,0,4,0,2,0,0,2,2,0,0,0,0,0,0,0,0,0,0,0,0,0,0,0,0,0,0,0,0,0,0,0,0],"split_type":[0,0,0,0,0,0,0,0,0,0,0,0,0,0,0,0,0,0,0,0,0,0,0,0,0,0,0,0,0,0,0,0,0,0,0,0,0,0,0,0,0,0,0,0,0,0,0,0,0,0,0,0,0,0,0],"sum_hessian":[1.614E3,1.576E3,3.8E1,4.7E1,1.529E3,2.8E1,1E1,3.9E1,8E0,1.135E3,3.94E2,7E0,2.1E1,3E0,7E0,1.3E1,2.6E1,4E0,4E0,1.134E3,1E0,3.28E2,6.6E1,4E0,3E0,2E0,1.9E1,1E0,2E0,3E0,4E0,7E0,6E0,2.2E1,4E0,2E0,2E0,1.128E3,6E0,3.14E2,1.4E1,5.9E1,7E0,3E0,1E0,2E0,1E0,1E0,1E0,1.5E1,4E0,2E0,1E0,2E0,2E0],"tree_param":{"num_deleted":"0","num_feature":"47","num_nodes":"55","size_leaf_vector":"1"}},{"base_weights":[1.1740545E-3,3.6352766E-3,-8.477604E-2,-1.5413238E-2,1.6037002E-2,8.68386E-2,-9.910181E-2,1.1075337E-1,-2.1567661E-2,-1.0420429E-2,4.2294834E-2,-2.0037175E-3,1.2023751E-1,-1.16559684E-1,5.339842E-2,1.4869972E-1,6.388336E-2,-2.8084269E-2,7.417668E-2,7.195053E-2,-1.7542977E-2,-4.806362E-2,5.3199623E-2,4.3390777E-2,1.0716105E-2,-2.1915023E-1,-8.189721E-2,2.2849524E-2,-5.6502344E-3,-6.0748085E-2,3.1685315E-2,-1.2470997E-2,3.31812E-3,3.478148E-2,-6.739123E-2,1.3162652E-1,1.5053598E-2,-1.24310935E-2,5.3773974E-3,-9.4715063E-4,-5.476204E-2,1.0305027E-2,3.1582203E-2,-4.7836304E-4,-8.432436E-2,1.584089E-2,-3.3284806E-2],"categories":[],"categories_nodes":[],"categories_segments":[],"categories_sizes":[],"default_left":[0,0,0,0,0,0,0,0,0,0,0,0,0,0,0,0,0,0,0,0,0,0,0,0,0,0,0,0,0,0,0,0,0,0,0,0,0,0,0,0,0,0,0,0,0,0,0],"id":15,"left_children":[1,3,5,7,9,11,13,15,17,19,21,-1,23,25,27,-1,29,31,33,35,37,39,41,-1,-1,43,45,-1,-1,-1,-1,-1,-1,-1,-1,-1,-1,-1,-1,-1,-1,-1,-1,-1,-1,-1,-1],"loss_changes":[3.4194896E-1,3.713715E-1,1.1923891E-1,4.8380798E-1,6.618092E-1,1.3296623E-2,1.1804196E-1,4.9151972E-1,3.714487E-1,2.7994055E-1,4.7354943E-1,0E0,1.0198094E-3,1.1718184E-1,9.656969E-3,0E0,3.215478E-1,2.9344103E-1,5.002442E-1,2.8145275E-1,3.7193185E-1,3.134445E-1,4.1551745E-1,0E0,0E0,1.2081277E-1,1.2325835E-1,0E0,0E0,0E0,0E0,0E0,0E0,0E0,0E0,0E0,0E0,0E0,0E0,0E0,0E0,0E0,0E0,0E0,0E0,0E0,0E0],"parents":[2147483647,0,0,1,1,2,2,3,3,4,4,5,5,6,6,7,7,8,8,9,9,10,10,12,12,13,13,14,14,16,16,17,17,18,18,19,19,20,20,21,21,22,22,25,25,26,26],"right_children":[2,4,6,8,10,12,14,16,18,20,22,-1,24,26,28,-1,30,32,34,36,38,40,42,-1,-1,44,46,-1,-1,-1,-1,-1,-1,-1,-1,-1,-1,-1,-1,-1,-1,-1,-1,-1,-1,-1,-1],"split_conditions":[1E0,3.780438E1,1E0,2.5649493E0,-1.2225831E2,6.931472E-1,1.7917595E0,-1.222743E2,-1.221585E2,3.780741E1,1E0,-2.0037175E-3,1E0,1E0,1.9459101E0,1.4869972E-1,6.931472E-1,1E0,2.6390574E0,-1.2230102E2,1.5830939E0,2.7080503E0,3.04E2,4.3390777E-2,1.0716105E-2,0E0,3.7819134E1,2.2849524E-2,-5.6502344E-3,-6.0748085E-2,3.1685315E-2,-1.2470997E-2,3.31812E-3,3.478148E-2,-6.739123E-2,1.3162652E-1,1.5053598E-2,-1.24310935E-2,5.3773974E-3,-9.4715063E-4,-5.476204E-2,1.0305027E-2,3.1582203E-2,-4.7836304E-4,-8.432436E-2,1.584089E-2,-3.3284806E-2],"split_indices":[31,4,2,11,6,0,0,6,6,4,3,0,1,18,0,0,0,17,7,6,8,7,2,0,0,8,4,0,0,0,0,0,0,0,0,0,0,0,0,0,0,0,0,0,0,0,0],"split_type":[0,0,0,0,0,0,0,0,0,0,0,0,0,0,0,0,0,0,0,0,0,0,0,0,0,0,0,0,0,0,0,0,0,0,0,0,0,0,0,0,0,0,0,0,0,0,0],"sum_hessian":[1.614E3,1.57E3,4.4E1,6.19E2,9.51E2,3E0,4.1E1,2.8E1,5.91E2,4.74E2,4.77E2,1E0,2E0,3.7E1,4E0,2E0,2.6E1,5.54E2,3.7E1,3.7E1,4.37E2,5.1E1,4.26E2,1E0,1E0,8E0,2.9E1,3E0,1E0,3E0,2.3E1,4.12E2,1.42E2,3.3E1,4E0,1E0,3.6E1,2.61E2,1.76E2,3.9E1,1.2E1,3.14E2,1.12E2,2E0,6E0,5E0,2.4E1],"tree_param":{"num_deleted":"0","num_feature":"47","num_nodes":"47","size_leaf_vector":"1"}},{"base_weights":[9.2760357E-4,-6.943713E-4,9.2883624E-2,2.3388803E-2,-7.4223643E-3,1.2952128E-1,-7.668118E-2,1.9967278E-2,1.8108553E-1,-3.3165038E-2,1.8137223E-3,7.768132E-2,2.8937426E-1,1.6896337E-2,1.0963383E-1,1.032857E-2,-5.4563392E-2,-2.1259792E-2,1.8095005E-2,1.8386953E-1,-5.7512663E-2,1.0752297E-2,9.9873826E-2,5.867246E-4,2.762676E-2,6.5469794E-2,-5.295623E-4,-2.2010084E-2,9.5436187E-4,-4.2909283E-2,-3.1147588E-3,-3.3402964E-2,8.285459E-3,7.625183E-2,2.1361256E-2,3.674637E-2,-4.5646213E-2],"categories":[],"categories_nodes":[],"categories_segments":[],"categories_sizes":[],"default_left":[0,0,0,0,0,0,0,0,0,0,0,0,0,0,0,0,0,0,0,0,0,0,0,0,0,0,0,0,0,0,0,0,0,0,0,0,0],"id":16,"left_children":[1,3,5,7,9,11,-1,13,-1,15,17,19,21,23,-1,25,27,29,31,33,35,-1,-1,-1,-1,-1,-1,-1,-1,-1,-1,-1,-1,-1,-1,-1,-1],"loss_changes":[2.4094231E-1,2.5747952E-1,3.9060366E-1,6.7683625E-1,2.9536003E-1,1.9297713E-1,0E0,3.6091226E-1,0E0,3.0583036E-1,3.4411946E-1,3.1205094E-1,5.4298818E-2,3.8627827E-1,0E0,2.744489E-1,2.3911017E-1,5.005145E-1,6.650161E-1,7.695064E-2,1.8899202E-1,0E0,0E0,0E0,0E0,0E0,0E0,0E0,0E0,0E0,0E0,0E0,0E0,0E0,0E0,0E0,0E0],"parents":[2147483647,0,0,1,1,2,2,3,3,4,4,5,5,7,7,9,9,10,10,11,11,12,12,13,13,15,15,16,16,17,17,18,18,19,19,20,20],"right_children":[2,4,6,8,10,12,-1,14,-1,16,18,20,22,24,-1,26,28,30,32,34,36,-1,-1,-1,-1,-1,-1,-1,-1,-1,-1,-1,-1,-1,-1,-1,-1],"split_conditions":[3.785192E1,1.427916E0,2E0,1E0,1.5644405E0,2.25E2,-7.668118E-2,2.3978953E0,1.8108553E-1,2.4849067E0,2.6390574E0,1.5E2,1E0,6.906755E0,1.0963383E-1,2.3025851E0,1E0,1E0,-1.2228473E2,1.6014057E0,3.785262E1,1.0752297E-2,9.9873826E-2,5.867246E-4,2.762676E-2,6.5469794E-2,-5.295623E-4,-2.2010084E-2,9.5436187E-4,-4.2909283E-2,-3.1147588E-3,-3.3402964E-2,8.285459E-3,7.625183E-2,2.1361256E-2,3.674637E-2,-4.5646213E-2],"split_indices":[4,8,19,28,8,2,0,0,0,12,12,2,1,11,0,11,5,3,6,8,4,0,0,0,0,0,0,0,0,0,0,0,0,0,0,0,0],"split_type":[0,0,0,0,0,0,0,0,0,0,0,0,0,0,0,0,0,0,0,0,0,0,0,0,0,0,0,0,0,0,0,0,0,0,0,0,0],"sum_hessian":[1.614E3,1.587E3,2.7E1,3.46E2,1.241E3,2.5E1,2E0,3.45E2,1E0,3.27E2,9.14E2,2E1,5E0,3.43E2,2E0,1.08E2,2.19E2,3.78E2,5.36E2,1.1E1,9E0,1E0,4E0,2.87E2,5.6E1,5E0,1.03E2,1.65E2,5.4E1,3E1,3.48E2,3.6E1,5E2,6E0,5E0,3E0,6E0],"tree_param":{"num_deleted":"0","num_feature":"47","num_nodes":"37","size_leaf_vector":"1"}},{"base_weights":[9.058607E-4,-2.0488217E-2,7.779914E-3,1.5704525E-1,-2.9927205E-2,5.9903422E-3,1.4240631E-1,1.8669745E-1,5.6740522E-2,-1.3041228E-1,-1.5085582E-2,4.3654875E-3,1.4425543E-1,1.993683E-1,-7.8321695E-2,2.0080617E-1,-1.6237021E-3,-3.5054686E-3,2.1828776E-2,-2.8594285E-3,-1.883042E-1,-1.870947E-2,2.8222072E-1,8.1408685E-3,-5.2122083E-2,4.3587368E-2,2.7121496E-1,2.4775548E-1,-4.4507504E-2,-5.3399564E-3,-2.7768707E-2,6.388224E-2,6.458402E-3,2.625422E-2,-3.946678E-2,1.0117508E-2,-6.3489385E-2,-6.381036E-3,1.212571E-1,1.20685965E-1,3.2430984E-2,1.6152089E-3,6.331586E-2,-3.28592E-2,6.0982206E-3,-2.8624393E-2,2.1866836E-2,1.0093832E-2,9.3599856E-2,-2.2275425E-2,8.62144E-2,-9.922744E-4,-1.9036103E-2],"categories":[],"categories_nodes":[],"categories_segments":[],"categories_sizes":[],"default_left":[0,0,0,0,0,0,0,0,0,0,0,0,0,0,0,0,0,0,0,0,0,0,0,0,0,0,0,0,0,0,0,0,0,0,0,0,0,0,0,0,0,0,0,0,0,0,0,0,0,0,0,0,0],"id":17,"left_children":[1,3,5,7,9,11,13,15,17,19,21,23,25,27,29,31,-1,-1,-1,33,35,37,39,41,43,45,47,49,51,-1,-1,-1,-1,-1,-1,-1,-1,-1,-1,-1,-1,-1,-1,-1,-1,-1,-1,-1,-1,-1,-1,-1,-1],"loss_changes":[2.376678E-1,6.6326416E-1,2.9379645E-1,4.8891783E-2,5.5580187E-1,2.7076042E-1,2.1678457E-1,4.174316E-2,7.428121E-3,3.5390705E-1,3.575915E-1,2.552725E-1,1.6710922E-1,1.6443294E-1,1.7998889E-3,2.5872469E-2,0E0,0E0,0E0,1.9760504E-1,1.7805386E-1,3.594563E-1,4.0133715E-2,6.259463E-1,3.1416816E-1,4.3612152E-2,4.7637254E-2,1.6169626E-1,2.131864E-3,0E0,0E0,0E0,0E0,0E0,0E0,0E0,0E0,0E0,0E0,0E0,0E0,0E0,0E0,0E0,0E0,0E0,0E0,0E0,0E0,0E0,0E0,0E0,0E0],"parents":[2147483647,0,0,1,1,2,2,3,3,4,4,5,5,6,6,7,7,8,8,9,9,10,10,11,11,12,12,13,13,14,14,15,15,19,19,20,20,21,21,22,22,23,23,24,24,25,25,26,26,27,27,28,28],"right_children":[2,4,6,8,10,12,14,16,18,20,22,24,26,28,30,32,-1,-1,-1,34,36,38,40,42,44,46,48,50,52,-1,-1,-1,-1,-1,-1,-1,-1,-1,-1,-1,-1,-1,-1,-1,-1,-1,-1,-1,-1,-1,-1,-1,-1],"split_conditions":[1E0,4E0,-1.2214371E2,2.3025851E0,8.1E1,1E0,3.29E2,3E0,6.931472E-1,-1.3862944E0,1E0,-1.221769E2,1.0986123E0,1.595339E0,1.3862944E0,3.7829662E1,-1.6237021E-3,-3.5054686E-3,2.1828776E-2,3.781206E1,1.5062971E0,1E0,1.73E2,-1.221805E2,3.776416E1,1E0,6.931472E-1,1E0,7E1,-5.3399564E-3,-2.7768707E-2,6.388224E-2,6.458402E-3,2.625422E-2,-3.946678E-2,1.0117508E-2,-6.3489385E-2,-6.381036E-3,1.212571E-1,1.20685965E-1,3.2430984E-2,1.6152089E-3,6.331586E-2,-3.28592E-2,6.0982206E-3,-2.8624393E-2,2.1866836E-2,1.0093832E-2,9.3599856E-2,-2.2275425E-2,8.62144E-2,-9.922744E-4,-1.9036103E-2],"split_indices":[1,2,6,9,2,39,2,3,0,10,21,6,9,8,0,4,0,0,0,4,8,42,2,6,4,2,0,2,2,0,0,0,0,0,0,0,0,0,0,0,0,0,0,0,0,0,0,0,0,0,0,0,0],"split_type":[0,0,0,0,0,0,0,0,0,0,0,0,0,0,0,0,0,0,0,0,0,0,0,0,0,0,0,0,0,0,0,0,0,0,0,0,0,0,0,0,0,0,0,0,0,0,0,0,0,0,0,0,0],"sum_hessian":[1.614E3,3.92E2,1.222E3,1.9E1,3.73E2,1.207E3,1.5E1,1.4E1,5E0,4.7E1,3.26E2,1.194E3,1.3E1,1.2E1,3E0,1.3E1,1E0,1E0,4E0,1.5E1,3.2E1,3.23E2,3E0,1.12E3,7.4E1,8E0,5E0,1E1,2E0,1E0,2E0,1.2E1,1E0,9E0,6E0,3E0,2.9E1,3.22E2,1E0,1E0,2E0,1.106E3,1.4E1,4.1E1,3.3E1,1E0,7E0,1E0,4E0,1E0,9E0,1E0,1E0],"tree_param":{"num_deleted":"0","num_feature":"47","num_nodes":"53","size_leaf_vector":"1"}},{"base_weights":[9.031668E-4,2.8389328E-5,1.4130211E-1,-4.4185296E-4,2.514418E-1,2.4677992E-1,-1.3531685E-2,2.2610584E-3,-5.06381E-2,7.197905E-3,1.0595091E-1,8.051968E-2,2.0802714E-2,-2.0150997E-2,1.3385153E-2,-3.0023009E-2,7.968232E-3,-6.556399E-2,3.642651E-1,-1.997033E-2,5.852068E-3,6.3398574E-3,-4.350741E-3,-1.0125931E-1,-1.4042623E-2,-1.97603E-2,1.8367961E-1],"categories":[],"categories_nodes":[],"categories_segments":[],"categories_sizes":[],"default_left":[0,0,0,0,0,0,0,0,0,0,0,0,0,0,0,0,0,0,0,0,0,0,0,0,0,0,0],"id":18,"left_children":[1,3,5,7,9,11,13,15,17,-1,-1,-1,-1,-1,-1,19,21,23,25,-1,-1,-1,-1,-1,-1,-1,-1],"loss_changes":[1.983468E-1,1.899808E-1,1.6665465E-1,2.1773882E-1,6.0940042E-2,4.4047236E-3,1.8591965E-2,2.8085318E-1,5.3169245E-1,0E0,0E0,0E0,0E0,0E0,0E0,4.1580182E-1,3.8339123E-1,3.922654E-1,3.6034763E-1,0E0,0E0,0E0,0E0,0E0,0E0,0E0,0E0],"parents":[2147483647,0,0,1,1,2,2,3,3,4,4,5,5,6,6,7,7,8,8,15,15,16,16,17,17,18,18],"right_children":[2,4,6,8,10,12,14,16,18,-1,-1,-1,-1,-1,-1,20,22,24,26,-1,-1,-1,-1,-1,-1,-1,-1],"split_conditions":[2.6390574E0,1E0,1.0986123E0,1.410987E0,1E0,3.09E2,9.5E1,3.777995E1,1E0,7.197905E-3,1.0595091E-1,8.051968E-2,2.0802714E-2,-2.0150997E-2,1.3385153E-2,2.32E2,1.7917595E0,-1.2229684E2,7.6E1,-1.997033E-2,5.852068E-3,6.3398574E-3,-4.350741E-3,-1.0125931E-1,-1.4042623E-2,-1.97603E-2,1.8367961E-1],"split_indices":[0,23,7,10,2,2,2,4,15,0,0,0,0,0,0,2,7,6,2,0,0,0,0,0,0,0,0],"split_type":[0,0,0,0,0,0,0,0,0,0,0,0,0,0,0,0,0,0,0,0,0,0,0,0,0,0,0],"sum_hessian":[1.614E3,1.605E3,9E0,1.603E3,2E0,5E0,4E0,1.522E3,8.1E1,1E0,1E0,4E0,1E0,2E0,2E0,2.28E2,1.294E3,7.9E1,2E0,1.31E2,9.7E1,8.16E2,4.78E2,4E0,7.5E1,1E0,1E0],"tree_param":{"num_deleted":"0","num_feature":"47","num_nodes":"27","size_leaf_vector":"1"}},{"base_weights":[7.833242E-4,-6.9086784E-3,1.2852042E-2,9.335377E-3,-2.9791985E-2,-9.599005E-3,2.635852E-2,7.7551603E-3,3.096253E-1,1.0548342E-1,-3.1584196E-2,-4.2532417E-3,-1.8463789E-1,-2.525641E-3,6.7560785E-2,1.7510695E-2,-4.2454183E-2,-1.679628E-2,1.5612768E-1,-5.4396715E-2,-1.4979854E-4,-9.958962E-2,6.7675584E-3,-7.344103E-3,-2.0725076E-1,-1.20976465E-2,1.05418295E-1,-4.6190828E-2,7.706816E-2,4.4866268E-2,3.887691E-3,-2.5821295E-2,8.9817407E-4,2.0608021E-2,-1.926614E-2,-5.9410133E-3,2.337218E-2,-4.1447796E-2,2.2382127E-2,1.4878055E-2,-4.454448E-3,-6.809143E-2,-1.6297102E-2,-4.4906743E-2,-1.8082923E-3,-6.3647307E-4,8.702264E-2,3.0181462E-2,-4.112465E-3],"categories":[],"categories_nodes":[],"categories_segments":[],"categories_sizes":[],"default_left":[0,0,0,0,0,0,0,0,0,0,0,0,0,0,0,0,0,0,0,0,0,0,0,0,0,0,0,0,0,0,0,0,0,0,0,0,0,0,0,0,0,0,0,0,0,0,0,0,0],"id":19,"left_children":[1,3,5,7,9,11,13,15,17,-1,19,21,23,25,27,29,31,-1,-1,33,35,37,39,-1,41,43,45,-1,47,-1,-1,-1,-1,-1,-1,-1,-1,-1,-1,-1,-1,-1,-1,-1,-1,-1,-1,-1,-1],"loss_changes":[1.5001345E-1,3.6716348E-1,1.9098757E-1,2.7187333E-1,2.913632E-1,2.2097945E-1,4.6787715E-1,2.828791E-1,2.6035124E-1,0E0,2.9328483E-1,2.4338181E-1,2.0277768E-2,2.4098697E-1,3.5306585E-1,2.8835738E-1,1.8659392E-1,0E0,0E0,2.909935E-1,2.6694223E-1,1.715568E-1,1.9328484E-1,0E0,5.765021E-3,1.778265E-1,3.7791753E-1,0E0,3.346852E-1,0E0,0E0,0E0,0E0,0E0,0E0,0E0,0E0,0E0,0E0,0E0,0E0,0E0,0E0,0E0,0E0,0E0,0E0,0E0,0E0],"parents":[2147483647,0,0,1,1,2,2,3,3,4,4,5,5,6,6,7,7,8,8,10,10,11,11,12,12,13,13,14,14,15,15,16,16,19,19,20,20,21,21,22,22,24,24,25,25,26,26,28,28],"right_children":[2,4,6,8,10,12,14,16,18,-1,20,22,24,26,28,30,32,-1,-1,34,36,38,40,-1,42,44,46,-1,48,-1,-1,-1,-1,-1,-1,-1,-1,-1,-1,-1,-1,-1,-1,-1,-1,-1,-1,-1,-1],"split_conditions":[1E0,1E0,-1.2225878E2,1E0,1.0986123E0,3.8066626E0,3.780852E1,4.158883E0,7.6E1,1.0548342E-1,9.531018E-2,1E0,-1.2228735E2,-1.2216115E2,4E0,-1.2229684E2,3.465736E0,-1.679628E-2,1.5612768E-1,7E0,1.5993875E0,1E0,3.781628E1,-7.344103E-3,3.784463E1,3.775586E1,2.7080503E0,-4.6190828E-2,4.3820267E0,4.4866268E-2,3.887691E-3,-2.5821295E-2,8.9817407E-4,2.0608021E-2,-1.926614E-2,-5.9410133E-3,2.337218E-2,-4.1447796E-2,2.2382127E-2,1.4878055E-2,-4.454448E-3,-6.809143E-2,-1.6297102E-2,-4.4906743E-2,-1.8082923E-3,-6.3647307E-4,8.702264E-2,3.0181462E-2,-4.112465E-3],"split_indices":[13,46,6,15,11,7,4,12,2,0,10,19,6,6,2,6,11,0,0,2,8,29,4,0,4,4,12,0,12,0,0,0,0,0,0,0,0,0,0,0,0,0,0,0,0,0,0,0,0],"split_type":[0,0,0,0,0,0,0,0,0,0,0,0,0,0,0,0,0,0,0,0,0,0,0,0,0,0,0,0,0,0,0,0,0,0,0,0,0,0,0,0,0,0,0,0,0,0,0,0,0],"sum_hessian":[1.614E3,9.86E2,6.28E2,5.77E2,4.09E2,2.36E2,3.92E2,5.75E2,2E0,1E0,4.08E2,2.3E2,6E0,2.31E2,1.61E2,4.82E2,9.3E1,1E0,1E0,2.36E2,1.72E2,2.3E1,2.07E2,1E0,5E0,2.13E2,1.8E1,6E0,1.55E2,1.5E1,4.67E2,4.7E1,4.6E1,1.7E1,2.19E2,1.38E2,3.4E1,1.9E1,4E0,6.9E1,1.38E2,4E0,1E0,8E0,2.05E2,1.2E1,6E0,1.23E2,3.2E1],"tree_param":{"num_deleted":"0","num_feature":"47","num_nodes":"49","size_leaf_vector":"1"}},{"base_weights":[6.7622977E-4,2.903693E-4,2.0791514E-1,-8.614448E-4,6.552204E-2,7.0093633E-3,8.6552456E-2,1.6282974E-2,-5.658422E-3,9.1532044E-2,-5.452161E-2,1.3398507E-2,1.5214628E-1,-3.2929763E-2,-7.840908E-4,5.0455276E-2,2.200454E-1,9.2553996E-2,3.2357646E-3,1.0537533E-2,-1.5824335E-2,-1.6703088E-2,9.3650597E-4,2.5627427E-2,-5.6350946E-2,1.2819887E-2,7.4088395E-2],"categories":[],"categories_nodes":[],"categories_segments":[],"categories_sizes":[],"default_left":[0,0,0,0,0,0,0,0,0,0,0,0,0,0,0,0,0,0,0,0,0,0,0,0,0,0,0],"id":20,"left_children":[1,3,5,7,9,-1,-1,11,13,15,-1,17,-1,19,21,23,25,-1,-1,-1,-1,-1,-1,-1,-1,-1,-1],"loss_changes":[1.2908362E-1,1.2124881E-1,3.7879616E-2,1.3052696E-1,1.9671002E-1,0E0,0E0,4.8452282E-1,1.6480683E-1,1.2614931E-1,0E0,2.6344684E-1,0E0,2.5541067E-1,2.2593628E-1,1.910376E-1,1.8081754E-2,0E0,0E0,0E0,0E0,0E0,0E0,0E0,0E0,0E0,0E0],"parents":[2147483647,0,0,1,1,2,2,3,3,4,4,7,7,8,8,9,9,11,11,13,13,14,14,15,15,16,16],"right_children":[2,4,6,8,10,-1,-1,12,14,16,-1,18,-1,20,22,24,26,-1,-1,-1,-1,-1,-1,-1,-1,-1,-1],"split_conditions":[1E0,3.785192E1,1E0,1.427916E0,2E0,7.0093633E-3,8.6552456E-2,1E0,1.541159E0,2.25E2,-5.452161E-2,-1.2229958E2,1.5214628E-1,-1.5141277E0,-2.4079456E0,2.16E2,1E0,9.2553996E-2,3.2357646E-3,1.0537533E-2,-1.5824335E-2,-1.6703088E-2,9.3650597E-4,2.5627427E-2,-5.6350946E-2,1.2819887E-2,7.4088395E-2],"split_indices":[23,4,2,8,19,0,0,28,8,2,0,6,0,10,10,2,1,0,0,0,0,0,0,0,0,0,0],"split_type":[0,0,0,0,0,0,0,0,0,0,0,0,0,0,0,0,0,0,0,0,0,0,0,0,0,0,0],"sum_hessian":[1.614E3,1.612E3,2E0,1.585E3,2.7E1,1E0,1E0,3.46E2,1.239E3,2.5E1,2E0,3.45E2,1E0,1.87E2,1.052E3,2E1,5E0,2E0,3.43E2,4.2E1,1.45E2,6.9E1,9.83E2,1.8E1,2E0,1E0,4E0],"tree_param":{"num_deleted":"0","num_feature":"47","num_nodes":"27","size_leaf_vector":"1"}},{"base_weights":[6.72791E-4,4.9652313E-3,-1.7269565E-2,2.8724752E-3,9.687527E-2,-3.1116495E-2,8.339295E-2,5.761244E-3,-5.90077E-2,1.391867E-1,-1.261531E-2,-9.538894E-2,-1.9447438E-2,6.1367497E-2,9.5970206E-2,2.5465755E-2,-3.9535225E-3,-6.7246415E-2,6.035407E-2,5.6414068E-2,1.7654344E-1,7.546635E-2,-9.81739E-2,-2.6229614E-1,-5.4513324E-2,1.2252687E-2,-4.815448E-2,1.0472797E-1,-4.669974E-2,8.582681E-3,-8.856571E-2,-1.52298855E-2,1.5140472E-3,-2.3229085E-2,4.154358E-2,2.432023E-2,-1.7423917E-2,1.1484528E-2,5.8919072E-2,1.078713E-3,5.4442335E-2,-1.0861158E-3,-3.6272157E-2,-9.26224E-2,-2.4592115E-2,-5.486295E-2,6.122975E-3,1.9262937E-3,6.6599324E-2,9.512456E-3,-1.9190893E-2,6.1892495E-2,1.44358715E-2,6.5170056E-3,-3.2201864E-2],"categories":[],"categories_nodes":[],"categories_segments":[],"categories_sizes":[],"default_left":[0,0,0,0,0,0,0,0,0,0,0,0,0,0,0,0,0,0,0,0,0,0,0,0,0,0,0,0,0,0,0,0,0,0,0,0,0,0,0,0,0,0,0,0,0,0,0,0,0,0,0,0,0,0,0],"id":21,"left_children":[1,3,5,7,9,11,13,15,17,19,21,23,25,27,-1,29,31,33,-1,35,37,39,41,43,45,47,49,51,53,-1,-1,-1,-1,-1,-1,-1,-1,-1,-1,-1,-1,-1,-1,-1,-1,-1,-1,-1,-1,-1,-1,-1,-1,-1,-1],"loss_changes":[1.24467365E-1,2.5054E-1,4.374813E-1,2.2843453E-1,1.3610423E-1,2.0439461E-1,1.7831764E-1,2.3363885E-1,1.3571467E-1,5.4974914E-2,7.5234115E-2,2.722436E-1,2.1353397E-1,1.7358124E-1,0E0,4.1465822E-1,3.44905E-1,1.2804666E-1,0E0,2.7289623E-2,3.0911177E-2,3.7441816E-2,1.0309827E-2,4.1692197E-2,3.4034097E-1,1.355698E-1,1.573824E-1,1.3958034E-1,4.7972567E-2,0E0,0E0,0E0,0E0,0E0,0E0,0E0,0E0,0E0,0E0,0E0,0E0,0E0,0E0,0E0,0E0,0E0,0E0,0E0,0E0,0E0,0E0,0E0,0E0,0E0,0E0],"parents":[2147483647,0,0,1,1,2,2,3,3,4,4,5,5,6,6,7,7,8,8,9,9,10,10,11,11,12,12,13,13,15,15,16,16,17,17,19,19,20,20,21,21,22,22,23,23,24,24,25,25,26,26,27,27,28,28],"right_children":[2,4,6,8,10,12,14,16,18,20,22,24,26,28,-1,30,32,34,-1,36,38,40,42,44,46,48,50,52,54,-1,-1,-1,-1,-1,-1,-1,-1,-1,-1,-1,-1,-1,-1,-1,-1,-1,-1,-1,-1,-1,-1,-1,-1,-1,-1],"split_conditions":[3.3672957E0,2.9957323E0,3.2580965E0,2.3025851E0,3.912023E0,1E0,4.4998097E0,-1.2378744E0,1E0,-1.609438E0,8.9E1,5.247024E0,1.5432981E0,3.7840305E1,9.5970206E-2,1E0,1E0,-1.2216532E2,6.035407E-2,1.0986123E0,1E0,8.7E1,3.780232E1,6.931472E-1,3.7801E1,4.9416423E0,1E0,5.247024E0,2E0,8.582681E-3,-8.856571E-2,-1.52298855E-2,1.5140472E-3,-2.3229085E-2,4.154358E-2,2.432023E-2,-1.7423917E-2,1.1484528E-2,5.8919072E-2,1.078713E-3,5.4442335E-2,-1.0861158E-3,-3.6272157E-2,-9.26224E-2,-2.4592115E-2,-5.486295E-2,6.122975E-3,1.9262937E-3,6.6599324E-2,9.512456E-3,-1.9190893E-2,6.1892495E-2,1.44358715E-2,6.5170056E-3,-3.2201864E-2],"split_indices":[7,9,12,9,12,25,7,10,43,10,2,11,8,4,0,43,19,6,0,0,2,2,4,9,4,7,18,11,26,0,0,0,0,0,0,0,0,0,0,0,0,0,0,0,0,0,0,0,0,0,0,0,0,0,0],"split_type":[0,0,0,0,0,0,0,0,0,0,0,0,0,0,0,0,0,0,0,0,0,0,0,0,0,0,0,0,0,0,0,0,0,0,0,0,0,0,0,0,0,0,0,0,0,0,0,0,0,0,0,0,0,0,0],"sum_hessian":[1.614E3,1.303E3,3.11E2,1.275E3,2.8E1,2.74E2,3.7E1,1.219E3,5.6E1,2E1,8E0,4.1E1,2.33E2,3.5E1,2E0,4.02E2,8.17E2,5.5E1,1E0,7E0,1.3E1,4E0,4E0,7E0,3.4E1,1.11E2,1.22E2,2.5E1,1E1,3.99E2,3E0,1.31E2,6.86E2,5.3E1,2E0,6E0,1E0,2E0,1.1E1,3E0,1E0,1E0,3E0,5E0,2E0,1.2E1,2.2E1,1.09E2,2E0,2E1,1.02E2,8E0,1.7E1,5E0,5E0],"tree_param":{"num_deleted":"0","num_feature":"47","num_nodes":"55","size_leaf_vector":"1"}},{"base_weights":[5.452556E-4,-1.3448694E-4,1.09657384E-1,-8.4972696E-4,1.0365257E-1,5.710366E-2,-9.099865E-3,6.1973598E-2,-1.9295869E-3,2.5793657E-1,-6.790686E-2,-1.5137006E-2,3.529024E-2,-3.1717256E-2,1.8173027E-1,-1.6893564E-2,2.7310916E-3,2.4667788E-2,9.757061E-2,-9.580536E-2,1.07378485E-2,1.3035537E-2,2.845073E-3,9.474493E-3,-2.9689157E-2,9.530378E-3,8.529239E-2,-9.895822E-3,1.1659506E-2,4.3079283E-4,3.3647493E-2,-3.2167554E-2,-7.5189117E-3],"categories":[],"categories_nodes":[],"categories_segments":[],"categories_sizes":[],"default_left":[0,0,0,0,0,0,0,0,0,0,0,0,0,0,0,0,0,0,0,0,0,0,0,0,0,0,0,0,0,0,0,0,0],"id":22,"left_children":[1,3,5,7,9,-1,11,13,15,17,19,-1,21,23,25,27,29,-1,-1,31,-1,-1,-1,-1,-1,-1,-1,-1,-1,-1,-1,-1,-1],"loss_changes":[1.1979631E-1,1.19305715E-1,9.7555146E-2,1.0839285E-1,3.0867326E-1,0E0,1.0959796E-2,3.0870682E-1,1.0954152E-1,4.42079E-2,2.0787543E-2,0E0,2.1978864E-4,7.123161E-2,1.7556155E-1,3.359732E-1,1.6962056E-1,0E0,0E0,1.3519377E-3,0E0,0E0,0E0,0E0,0E0,0E0,0E0,0E0,0E0,0E0,0E0,0E0,0E0],"parents":[2147483647,0,0,1,1,2,2,3,3,4,4,6,6,7,7,8,8,9,9,10,10,12,12,13,13,14,14,15,15,16,16,19,19],"right_children":[2,4,6,8,10,-1,12,14,16,18,20,-1,22,24,26,28,30,-1,-1,32,-1,-1,-1,-1,-1,-1,-1,-1,-1,-1,-1,-1,-1],"split_conditions":[2.6390574E0,1E0,1.0986123E0,1.9459101E0,-7.3396915E-1,5.710366E-2,9.5E1,6.931472E-1,1E0,0E0,6.214608E0,-1.5137006E-2,2.7725887E0,-5.798185E-1,1E0,2.0794415E0,1E0,2.4667788E-2,9.757061E-2,7.654678E-1,1.07378485E-2,1.3035537E-2,2.845073E-3,9.474493E-3,-2.9689157E-2,9.530378E-3,8.529239E-2,-9.895822E-3,1.1659506E-2,4.3079283E-4,3.3647493E-2,-3.2167554E-2,-7.5189117E-3],"split_indices":[0,21,7,11,10,0,2,7,1,8,11,0,0,10,27,9,39,0,0,10,0,0,0,0,0,0,0,0,0,0,0,0,0],"split_type":[0,0,0,0,0,0,0,0,0,0,0,0,0,0,0,0,0,0,0,0,0,0,0,0,0,0,0,0,0,0,0,0,0],"sum_hessian":[1.614E3,1.605E3,9E0,1.595E3,1E1,5E0,4E0,2.6E1,1.569E3,5E0,5E0,2E0,2E0,1.5E1,1.1E1,3.72E2,1.197E3,2E0,3E0,4E0,1E0,1E0,1E0,8E0,7E0,5E0,6E0,2.89E2,8.3E1,1.184E3,1.3E1,3E0,1E0],"tree_param":{"num_deleted":"0","num_feature":"47","num_nodes":"33","size_leaf_vector":"1"}},{"base_weights":[5.437959E-4,2.2619833E-4,1.7112415E-1,-1.4635948E-2,4.4622035E-3,3.7279846E-3,7.327788E-2,-6.684013E-2,-3.9007447E-3,3.6846202E-2,-2.313468E-4,-2.124133E-1,-2.2988781E-2,-7.8135915E-3,1.5987812E-1,-1.6076827E-1,4.977486E-2,-1.3097733E-1,2.8123038E-3,-7.795503E-2,-8.657634E-3,2.7275816E-2,-2.4835229E-2,-2.4817212E-2,-2.3895655E-4,6.179631E-3,7.775638E-2,-6.313144E-2,-1.0096192E-2,7.4585634E-3,4.723091E-2,-8.773121E-2,-2.5889235E-2,-3.0885898E-2,1.2918989E-3],"categories":[],"categories_nodes":[],"categories_segments":[],"categories_sizes":[],"default_left":[0,0,0,0,0,0,0,0,0,0,0,0,0,0,0,0,0,0,0,0,0,0,0,0,0,0,0,0,0,0,0,0,0,0,0],"id":23,"left_children":[1,3,5,7,9,-1,-1,11,13,15,17,19,21,23,25,27,29,31,33,-1,-1,-1,-1,-1,-1,-1,-1,-1,-1,-1,-1,-1,-1,-1,-1],"loss_changes":[8.745537E-2,1.0161355E-1,3.178393E-2,2.0037052E-1,1.909154E-1,0E0,0E0,3.8451523E-1,1.9222002E-1,4.142297E-1,4.3731204E-1,1.14402354E-1,3.3446303E-1,1.5342446E-1,9.14837E-2,5.6055427E-2,3.984111E-1,1.5511379E-1,1.7015257E-1,0E0,0E0,0E0,0E0,0E0,0E0,0E0,0E0,0E0,0E0,0E0,0E0,0E0,0E0,0E0,0E0],"parents":[2147483647,0,0,1,1,2,2,3,3,4,4,7,7,8,8,9,9,10,10,11,11,12,12,13,13,14,14,15,15,16,16,17,17,18,18],"right_children":[2,4,6,8,10,-1,-1,12,14,16,18,20,22,24,26,28,30,32,34,-1,-1,-1,-1,-1,-1,-1,-1,-1,-1,-1,-1,-1,-1,-1,-1],"split_conditions":[1E0,8.3E1,1E0,-2.5257287E0,1.08E2,3.7279846E-3,7.327788E-2,4.1271343E0,2.1972246E0,1E0,1.17E2,-3.218876E0,1E0,-1.2227845E2,3.5E1,1E0,1E0,-1.8325815E0,-1.2229884E2,-7.795503E-2,-8.657634E-3,2.7275816E-2,-2.4835229E-2,-2.4817212E-2,-2.3895655E-4,6.179631E-3,7.775638E-2,-6.313144E-2,-1.0096192E-2,7.4585634E-3,4.723091E-2,-8.773121E-2,-2.5889235E-2,-3.0885898E-2,1.2918989E-3],"split_indices":[23,2,2,10,2,0,0,11,0,3,2,10,27,6,2,45,17,10,6,0,0,0,0,0,0,0,0,0,0,0,0,0,0,0,0],"split_type":[0,0,0,0,0,0,0,0,0,0,0,0,0,0,0,0,0,0,0,0,0,0,0,0,0,0,0,0,0,0,0,0,0,0,0],"sum_hessian":[1.614E3,1.612E3,2E0,3.57E2,1.255E3,1E0,1E0,6E1,2.97E2,1.58E2,1.097E3,1.3E1,4.7E1,2.91E2,6E0,9E0,1.49E2,2.4E1,1.073E3,1E1,3E0,1.6E1,3.1E1,2.4E1,2.67E2,3E0,3E0,6E0,3E0,1.22E2,2.7E1,4E0,2E1,1.4E1,1.059E3],"tree_param":{"num_deleted":"0","num_feature":"47","num_nodes":"35","size_leaf_vector":"1"}},{"base_weights":[3.1259097E-4,1.4920535E-3,-4.0870704E-2,1.1721208E-2,-4.4413274E-3,-8.731371E-2,-1.2236159E-2,8.64704E-3,1.4442763E-1,-1.628703E-1,-2.3416143E-3,6.582087E-3,-6.671726E-2,-1.1831655E-1,9.469366E-3,-1.9438272E-2,2.0380374E-2,-2.0644683E-2,2.4684858E-1,4.085362E-2,-2.2807284E-1,-2.96113E-3,9.090343E-2,6.615019E-2,-3.4259893E-2,-7.414985E-3,-4.0661216E-2,-4.22086E-2,2.8644355E-2,-1.0510643E-3,-3.427101E-2,2.950593E-3,1.889102E-2,1.499626E-1,1.1106801E-2,2.2569563E-2,-9.34217E-3,-2.5579263E-2,-9.272037E-2,-1.5450153E-2,2.2909282E-4,2.3187222E-2,-1.7750502E-3,1.2215893E-3,2.927624E-2],"categories":[],"categories_nodes":[],"categories_segments":[],"categories_sizes":[],"default_left":[0,0,0,0,0,0,0,0,0,0,0,0,0,0,0,0,0,0,0,0,0,0,0,0,0,0,0,0,0,0,0,0,0,0,0,0,0,0,0,0,0,0,0,0,0],"id":24,"left_children":[1,3,5,7,9,11,13,15,17,19,21,23,-1,25,27,29,31,-1,33,35,37,39,-1,41,-1,-1,-1,-1,43,-1,-1,-1,-1,-1,-1,-1,-1,-1,-1,-1,-1,-1,-1,-1,-1],"loss_changes":[7.850824E-2,9.54015E-2,5.877597E-2,2.3414506E-1,3.3061072E-1,2.1707778E-1,6.789378E-2,1.8658306E-1,3.0091456E-1,1.8200073E-1,1.8685235E-1,8.669645E-2,0E0,4.709311E-3,7.6015286E-2,2.5186777E-1,1.7857598E-1,0E0,4.5931733E-1,1.22429E-2,8.931553E-2,1.7758313E-1,0E0,6.880246E-3,0E0,0E0,0E0,0E0,3.856686E-2,0E0,0E0,0E0,0E0,0E0,0E0,0E0,0E0,0E0,0E0,0E0,0E0,0E0,0E0,0E0,0E0],"parents":[2147483647,0,0,1,1,2,2,3,3,4,4,5,5,6,6,7,7,8,8,9,9,10,10,11,11,13,13,14,14,15,15,16,16,18,18,19,19,20,20,21,21,23,23,28,28],"right_children":[2,4,6,8,10,12,14,16,18,20,22,24,-1,26,28,30,32,-1,34,36,38,40,-1,42,-1,-1,-1,-1,44,-1,-1,-1,-1,-1,-1,-1,-1,-1,-1,-1,-1,-1,-1,-1,-1],"split_conditions":[1E0,-1.3862944E0,-1.6607312E0,1E0,-1.3470737E0,-2.207275E0,6.931472E-1,1E0,1E0,2.7E1,4.787492E0,2E0,-6.671726E-2,1E0,-1.2227602E2,1.5933086E0,3.56E2,-2.0644683E-2,2E0,2.3E1,2E0,1.0986123E0,9.090343E-2,3.78239E1,-3.4259893E-2,-7.414985E-3,-4.0661216E-2,-4.22086E-2,2.8903718E0,-1.0510643E-3,-3.427101E-2,2.950593E-3,1.889102E-2,1.499626E-1,1.1106801E-2,2.2569563E-2,-9.34217E-3,-2.5579263E-2,-9.272037E-2,-1.5450153E-2,2.2909282E-4,2.3187222E-2,-1.7750502E-3,1.2215893E-3,2.927624E-2],"split_indices":[31,10,10,38,10,10,7,25,35,2,7,26,0,1,6,8,2,0,27,2,3,12,0,4,0,0,0,0,12,0,0,0,0,0,0,0,0,0,0,0,0,0,0,0,0],"split_type":[0,0,0,0,0,0,0,0,0,0,0,0,0,0,0,0,0,0,0,0,0,0,0,0,0,0,0,0,0,0,0,0,0,0,0,0,0,0,0,0,0,0,0,0,0],"sum_hessian":[1.614E3,1.57E3,4.4E1,5.76E2,9.94E2,1.6E1,2.8E1,5.64E2,1.2E1,1.2E1,9.82E2,1E1,6E0,4E0,2.4E1,1.66E2,3.98E2,4E0,8E0,3E0,9E0,9.81E2,1E0,7E0,3E0,1E0,3E0,2E0,2.2E1,1.43E2,2.3E1,3.2E2,7.8E1,3E0,5E0,2E0,1E0,4E0,5E0,6.9E1,9.12E2,6E0,1E0,1.7E1,5E0],"tree_param":{"num_deleted":"0","num_feature":"47","num_nodes":"45","size_leaf_vector":"1"}},{"base_weights":[1.930253E-4,1.0187864E-1,-3.1299333E-4,8.28455E-2,-2.2376378E-3,-8.7750796E-4,8.172404E-2,-3.3231642E-2,4.162369E-2,-3.6272136E-3,1.6362136E-2,1.9892406E-1,-4.9096663E-2,1.57107E-2,-2.0363332E-4,-3.4255593E-4,-2.9563203E-2,1.0398138E-1,-2.5033192E-3,2.3776926E-2,8.765188E-2,-7.0781425E-2,8.899069E-3,2.213466E-2,-6.795513E-4,-3.0940694E-3,-3.877464E-2,-3.0414356E-2,3.7173323E-2,1.0788643E-2,-1.0974274E-2,-1.0704804E-2,-3.167646E-2],"categories":[],"categories_nodes":[],"categories_segments":[],"categories_sizes":[],"default_left":[0,0,0,0,0,0,0,0,0,0,0,0,0,0,0,0,0,0,0,0,0,0,0,0,0,0,0,0,0,0,0,0,0],"id":25,"left_children":[1,3,5,-1,7,9,11,-1,13,15,17,19,21,-1,-1,23,25,27,29,-1,-1,31,-1,-1,-1,-1,-1,-1,-1,-1,-1,-1,-1],"loss_changes":[8.313142E-2,1.457752E-1,7.453997E-2,0E0,3.3173546E-2,7.581086E-2,1.7842059E-1,0E0,2.3083119E-3,1.1746806E-1,3.6391526E-1,4.3796644E-2,1.2347006E-2,0E0,0E0,1.7474599E-1,2.960983E-1,1.7218193E-1,2.3988302E-1,0E0,0E0,2.3407005E-3,0E0,0E0,0E0,0E0,0E0,0E0,0E0,0E0,0E0,0E0,0E0],"parents":[2147483647,0,0,1,1,2,2,4,4,5,5,6,6,8,8,9,9,10,10,11,11,12,12,15,15,16,16,17,17,18,18,21,21],"right_children":[2,4,6,-1,8,10,12,-1,14,16,18,20,22,-1,-1,24,26,28,30,-1,-1,32,-1,-1,-1,-1,-1,-1,-1,-1,-1,-1,-1],"split_conditions":[-1.2230102E2,9.2E1,1E0,8.28455E-2,1E0,3E0,-7.3396915E-1,-3.3231642E-2,1.609438E0,-1.2218834E2,1.7917595E0,-2.4079456E0,6.214608E0,1.57107E-2,-2.0363332E-4,3.777157E1,1.609438E0,-1.222794E2,-1.2223724E2,2.3776926E-2,8.765188E-2,3.43E2,8.899069E-3,2.213466E-2,-6.795513E-4,-3.0940694E-3,-3.877464E-2,-3.0414356E-2,3.7173323E-2,1.0788643E-2,-1.0974274E-2,-1.0704804E-2,-3.167646E-2],"split_indices":[6,2,21,0,1,3,10,0,0,6,0,10,11,0,0,4,9,6,6,0,0,2,0,0,0,0,0,0,0,0,0,0,0],"split_type":[0,0,0,0,0,0,0,0,0,0,0,0,0,0,0,0,0,0,0,0,0,0,0,0,0,0,0,0,0,0,0,0,0],"sum_hessian":[1.614E3,7E0,1.607E3,2E0,5E0,1.597E3,1E1,1E0,4E0,1.378E3,2.19E2,5E0,5E0,3E0,1E0,1.224E3,1.54E2,3.8E1,1.81E2,3E0,2E0,4E0,1E0,3E1,1.194E3,1.3E2,2.4E1,3E0,3.5E1,8.5E1,9.6E1,3E0,1E0],"tree_param":{"num_deleted":"0","num_feature":"47","num_nodes":"33","size_leaf_vector":"1"}},{"base_weights":[2.1511852E-4,5.770174E-4,-1.1643171E-1,3.0296942E-4,1.4736573E-1,-1.4271045E-1,-1.6975165E-3,3.8492067E-3,-1.137678E-2,3.5985948E-3,6.2715985E-2,-4.9515918E-2,-1.1352397E-2,-1.5820563E-3,4.9245156E-2,-2.6928442E-2,3.6069423E-2,-9.840073E-3,4.4750518E-4,1.745077E-2,-2.8904773E-2,6.34909E-2,-9.072102E-3,-5.99079E-4,3.875834E-2],"categories":[],"categories_nodes":[],"categories_segments":[],"categories_sizes":[],"default_left":[0,0,0,0,0,0,0,0,0,0,0,0,0,0,0,0,0,0,0,0,0,0,0,0,0],"id":26,"left_children":[1,3,5,7,9,11,-1,13,15,-1,-1,-1,-1,17,19,21,23,-1,-1,-1,-1,-1,-1,-1,-1],"loss_changes":[6.824336E-2,6.476128E-2,1.3747409E-2,6.668723E-2,2.2544354E-2,3.126368E-3,0E0,3.0457625E-1,2.7767152E-1,0E0,0E0,0E0,0E0,1.0598501E-1,1.7711163E-1,2.2999862E-1,3.2993653E-1,0E0,0E0,0E0,0E0,0E0,0E0,0E0,0E0],"parents":[2147483647,0,0,1,1,2,2,3,3,4,4,5,5,7,7,8,8,13,13,14,14,15,15,16,16],"right_children":[2,4,6,8,10,12,-1,14,16,-1,-1,-1,-1,18,20,22,24,-1,-1,-1,-1,-1,-1,-1,-1],"split_conditions":[2E0,1E0,3.783702E1,5.423243E-1,1E0,1.0986123E0,-1.6975165E-3,1.6551444E-1,1.6014057E0,3.5985948E-3,6.2715985E-2,-4.9515918E-2,-1.1352397E-2,1E0,-1.2217599E2,1.427916E0,6.931472E-1,-9.840073E-3,4.4750518E-4,1.745077E-2,-2.8904773E-2,6.34909E-2,-9.072102E-3,-5.99079E-4,3.875834E-2],"split_indices":[20,23,4,10,2,0,0,10,8,0,0,0,0,3,6,8,9,0,0,0,0,0,0,0,0],"split_type":[0,0,0,0,0,0,0,0,0,0,0,0,0,0,0,0,0,0,0,0,0,0,0,0,0],"sum_hessian":[1.614E3,1.61E3,4E0,1.608E3,2E0,3E0,1E0,1.234E3,3.74E2,1E0,1E0,2E0,1E0,1.103E3,1.31E2,2.82E2,9.2E1,9.8E1,1.005E3,1.24E2,7E0,3E0,2.79E2,6.6E1,2.6E1],"tree_param":{"num_deleted":"0","num_feature":"47","num_nodes":"25","size_leaf_vector":"1"}},{"base_weights":[1.9747362E-4,-2.8933372E-4,7.8358985E-2,1.0952071E-2,-3.818696E-3,4.548203E-2,4.259348E-3,8.771297E-3,1.2692828E-1,-4.4551706E-3,1.912607E-1,-1.3722516E-2,4.069531E-2,6.6324538E-3,2.774806E-1,1.0398478E-1,-5.256742E-3,2.6669456E-2,7.475224E-2,2.85666E-3,1.4373685E-2,1.2613756E-3,7.032237E-2,1.2108021E-1,3.7860633E-3,1.6283387E-2,7.524591E-2,-6.3463654E-3,1.1210549E-4],"categories":[],"categories_nodes":[],"categories_segments":[],"categories_sizes":[],"default_left":[0,0,0,0,0,0,0,0,0,0,0,0,0,0,0,0,0,0,0,0,0,0,0,0,0,0,0,0,0],"id":27,"left_children":[1,3,5,7,9,-1,11,13,-1,15,17,-1,19,21,23,25,27,-1,-1,-1,-1,-1,-1,-1,-1,-1,-1,-1,-1],"loss_changes":[6.1472766E-2,6.3759856E-2,5.363059E-2,3.4142393E-1,1.5270351E-1,0E0,1.2792495E-2,2.1828008E-1,0E0,1.06591895E-1,1.5615374E-3,0E0,4.4367136E-4,2.0971076E-1,9.5119104E-2,5.207429E-2,1.0849579E-1,0E0,0E0,0E0,0E0,0E0,0E0,0E0,0E0,0E0,0E0,0E0,0E0],"parents":[2147483647,0,0,1,1,2,2,3,3,4,4,6,6,7,7,9,9,10,10,12,12,13,13,14,14,15,15,16,16],"right_children":[2,4,6,8,10,-1,12,14,-1,16,18,-1,20,22,24,26,28,-1,-1,-1,-1,-1,-1,-1,-1,-1,-1,-1,-1],"split_conditions":[2.6390574E0,1E0,4.5217886E0,1E0,5.2983174E0,4.548203E-2,9.5E1,1E0,1.2692828E-1,1.7917595E0,1.9459101E0,-1.3722516E-2,2.6E2,2.1972246E0,8.4E1,2E0,3.779638E1,2.6669456E-2,7.475224E-2,2.85666E-3,1.4373685E-2,1.2613756E-3,7.032237E-2,1.2108021E-1,3.7860633E-3,1.6283387E-2,7.524591E-2,-6.3463654E-3,1.1210549E-4],"split_indices":[0,35,11,15,7,0,2,28,0,11,0,0,2,0,2,46,4,0,0,0,0,0,0,0,0,0,0,0,0],"split_type":[0,0,0,0,0,0,0,0,0,0,0,0,0,0,0,0,0,0,0,0,0,0,0,0,0,0,0,0,0],"sum_hessian":[1.614E3,1.605E3,9E0,3.83E2,1.222E3,4E0,5E0,3.82E2,1E0,1.219E3,3E0,2E0,3E0,3.8E2,2E0,8E0,1.211E3,2E0,1E0,1E0,2E0,3.77E2,3E0,1E0,1E0,7E0,1E0,3.16E2,8.95E2],"tree_param":{"num_deleted":"0","num_feature":"47","num_nodes":"29","size_leaf_vector":"1"}},{"base_weights":[4.844407E-4,-7.6497527E-4,3.7321284E-2,-1.21391425E-2,2.873484E-3,5.886318E-2,-1.1264879E-1,1.00637056E-1,-1.8370766E-2,-3.1186458E-2,5.63416E-3,7.6457635E-2,-7.410852E-2,7.433367E-3,-1.3968289E-1,1.22787096E-1,2.8489113E-2,-2.0328688E-2,1.02678396E-1,-1.0723795E-1,1.967512E-4,7.1512E-2,3.904988E-3,2.2322948E-1,4.5794845E-2,-8.558088E-2,1.027894E-1,-1.5803434E-2,-5.1004726E-2,3.9860353E-2,-2.7515173E-3,-7.013226E-3,1.3061372E-2,-1.040528E-2,5.15973E-3,-1.04300745E-1,-1.8228397E-2,1.5598643E-2,-1.3262334E-2,6.9988206E-2,-1.459651E-3,-4.992367E-3,2.800226E-3,2.233262E-2,8.0356814E-2,-7.061067E-4,3.6487486E-2,4.851916E-2,8.769656E-3],"categories":[],"categories_nodes":[],"categories_segments":[],"categories_sizes":[],"default_left":[0,0,0,0,0,0,0,0,0,0,0,0,0,0,0,0,0,0,0,0,0,0,0,0,0,0,0,0,0,0,0,0,0,0,0,0,0,0,0,0,0,0,0,0,0,0,0,0,0],"id":28,"left_children":[1,3,5,7,9,11,13,15,17,19,21,23,25,-1,27,29,31,33,-1,35,37,39,41,43,45,-1,47,-1,-1,-1,-1,-1,-1,-1,-1,-1,-1,-1,-1,-1,-1,-1,-1,-1,-1,-1,-1,-1,-1],"loss_changes":[7.435819E-2,6.471877E-2,1.778548E-1,2.6820198E-1,1.1159942E-1,1.1562568E-1,2.9467478E-2,2.8463498E-2,2.6114973E-1,2.1244094E-1,1.2468451E-1,1.787955E-1,2.534464E-1,0E0,6.878525E-3,2.1172285E-2,5.700975E-3,1.9400167E-1,0E0,2.6941043E-1,1.4950487E-1,3.4711725E-1,1.1951104E-1,2.6539326E-2,1.3172618E-1,0E0,1.2614448E-2,0E0,0E0,0E0,0E0,0E0,0E0,0E0,0E0,0E0,0E0,0E0,0E0,0E0,0E0,0E0,0E0,0E0,0E0,0E0,0E0,0E0,0E0],"parents":[2147483647,0,0,1,1,2,2,3,3,4,4,5,5,6,6,7,7,8,8,9,9,10,10,11,11,12,12,14,14,15,15,16,16,17,17,19,19,20,20,21,21,22,22,23,23,24,24,26,26],"right_children":[2,4,6,8,10,12,14,16,18,20,22,24,26,-1,28,30,32,34,-1,36,38,40,42,44,46,-1,48,-1,-1,-1,-1,-1,-1,-1,-1,-1,-1,-1,-1,-1,-1,-1,-1,-1,-1,-1,-1,-1,-1],"split_conditions":[-1.2216115E2,1E0,2.6390574E0,4E0,1E0,1.3862944E0,-1.2216036E2,2.3025851E0,1E0,8.9E1,2.4849067E0,1E0,6.931472E-1,7.433367E-3,1.41E2,3E0,6.931472E-1,1.9459101E0,1.02678396E-1,-2.5257287E0,-1.2224287E2,3.7795963E1,3.779674E1,-1.2215505E2,3.776198E1,-8.558088E-2,1.0986123E0,-1.5803434E-2,-5.1004726E-2,3.9860353E-2,-2.7515173E-3,-7.013226E-3,1.3061372E-2,-1.040528E-2,5.15973E-3,-1.04300745E-1,-1.8228397E-2,1.5598643E-2,-1.3262334E-2,6.9988206E-2,-1.459651E-3,-4.992367E-3,2.800226E-3,2.233262E-2,8.0356814E-2,-7.061067E-4,3.6487486E-2,4.851916E-2,8.769656E-3],"split_indices":[6,1,7,2,22,9,6,9,42,2,11,27,7,0,2,3,0,9,0,10,6,4,4,6,4,0,0,0,0,0,0,0,0,0,0,0,0,0,0,0,0,0,0,0,0,0,0,0,0],"split_type":[0,0,0,0,0,0,0,0,0,0,0,0,0,0,0,0,0,0,0,0,0,0,0,0,0,0,0,0,0,0,0,0,0,0,0,0,0,0,0,0,0,0,0,0,0,0,0,0,0],"sum_hessian":[1.614E3,1.562E3,5.2E1,3.78E2,1.184E3,4.6E1,6E0,1.9E1,3.59E2,8.8E1,1.096E3,4.1E1,5E0,1E0,5E0,1.4E1,5E0,3.58E2,1E0,2.5E1,6.3E1,2.7E1,1.069E3,6E0,3.5E1,2E0,3E0,2E0,3E0,1.3E1,1E0,1E0,4E0,2.59E2,9.9E1,3E0,2.2E1,2.9E1,3.4E1,8E0,1.9E1,2.23E2,8.46E2,2E0,4E0,2.2E1,1.3E1,1E0,2E0],"tree_param":{"num_deleted":"0","num_feature":"47","num_nodes":"49","size_leaf_vector":"1"}},{"base_weights":[4.2438257E-4,-1.0523894E-2,4.636338E-3,-1.4769062E-2,1.2243446E-1,2.2507446E-2,-5.113971E-4,3.1463128E-2,-2.7054837E-2,3.5072904E-2,1.2932077E-1,3.7981685E-2,-3.6141187E-2,-9.694507E-2,6.717487E-4,2.4791408E-1,1.6173832E-2,-1.6448122E-2,-9.924059E-2,3.1148305E-4,6.261728E-2,4.8991058E-2,-8.033845E-2,-5.203489E-2,1.23317815E-1,6.7359515E-2,-9.227474E-2,-1.909351E-4,1.5461273E-1,1.24937305E-2,8.4251575E-2,1.7147461E-2,-1.0720219E-2,-1.2280626E-2,4.3673585E-3,-1.5475665E-2,-7.125485E-2,-8.06509E-3,1.6387153E-2,1.0328519E-2,5.1315676E-2,-9.53682E-3,-7.269384E-2,-2.6632091E-2,1.4821225E-2,-1.7760286E-2,7.675214E-2,-3.9922465E-3,2.4508245E-3,2.6420081E-2,6.311939E-2],"categories":[],"categories_nodes":[],"categories_segments":[],"categories_sizes":[],"default_left":[0,0,0,0,0,0,0,0,0,0,0,0,0,0,0,0,0,0,0,0,0,0,0,0,0,0,0,0,0,0,0,0,0,0,0,0,0,0,0,0,0,0,0,0,0,0,0,0,0,0,0],"id":29,"left_children":[1,3,5,7,9,11,13,15,17,19,-1,21,23,25,27,29,31,33,35,37,-1,39,41,43,-1,45,-1,47,49,-1,-1,-1,-1,-1,-1,-1,-1,-1,-1,-1,-1,-1,-1,-1,-1,-1,-1,-1,-1,-1,-1],"loss_changes":[7.4522346E-2,2.5523752E-1,1.07370526E-1,2.484985E-1,3.623606E-1,2.382414E-1,1.0354937E-1,3.0045348E-1,2.625183E-1,7.237139E-2,0E0,2.7358037E-1,4.1231143E-1,4.0141422E-1,1.1915327E-1,2.905196E-2,1.8712738E-1,2.2989027E-1,2.7768677E-1,1.7715827E-2,0E0,3.3184272E-1,1.3384363E-1,2.0562974E-1,0E0,1.8212566E-1,0E0,9.803417E-2,3.2261014E-5,0E0,0E0,0E0,0E0,0E0,0E0,0E0,0E0,0E0,0E0,0E0,0E0,0E0,0E0,0E0,0E0,0E0,0E0,0E0,0E0,0E0,0E0],"parents":[2147483647,0,0,1,1,2,2,3,3,4,4,5,5,6,6,7,7,8,8,9,9,11,11,12,12,13,13,14,14,15,15,16,16,17,17,18,18,19,19,21,21,22,22,23,23,25,25,27,27,28,28],"right_children":[2,4,6,8,10,12,14,16,18,20,-1,22,24,26,28,30,32,34,36,38,-1,40,42,44,-1,46,-1,48,50,-1,-1,-1,-1,-1,-1,-1,-1,-1,-1,-1,-1,-1,-1,-1,-1,-1,-1,-1,-1,-1,-1],"split_conditions":[-1.222666E2,1E0,1.4701759E0,3.780741E1,6.214608E0,2E0,-3.506558E0,3.0445225E0,-1.2226957E2,2.7E2,1.2932077E-1,3.65E2,1E0,4.1271343E0,4.787492E0,6.931472E-1,1.5686159E0,1.5748465E0,1E0,2E0,6.261728E-2,3.64E2,-1.2216821E2,3.781842E1,1.23317815E-1,2.0794415E0,-9.227474E-2,1.5830939E0,1.9459101E0,1.24937305E-2,8.4251575E-2,1.7147461E-2,-1.0720219E-2,-1.2280626E-2,4.3673585E-3,-1.5475665E-2,-7.125485E-2,-8.06509E-3,1.6387153E-2,1.0328519E-2,5.1315676E-2,-9.53682E-3,-7.269384E-2,-2.6632091E-2,1.4821225E-2,-1.7760286E-2,7.675214E-2,-3.9922465E-3,2.4508245E-3,2.6420081E-2,6.311939E-2],"split_indices":[6,36,8,4,11,26,10,11,6,2,0,2,34,11,7,0,8,8,17,3,0,2,6,4,0,7,0,8,0,0,0,0,0,0,0,0,0,0,0,0,0,0,0,0,0,0,0,0,0,0,0],"split_type":[0,0,0,0,0,0,0,0,0,0,0,0,0,0,0,0,0,0,0,0,0,0,0,0,0,0,0,0,0,0,0,0,0,0,0,0,0,0,0,0,0,0,0,0,0,0,0,0,0,0,0],"sum_hessian":[1.614E3,4.48E2,1.166E3,4.35E2,1.3E1,2.6E2,9.06E2,9.1E1,3.44E2,1.1E1,2E0,2.06E2,5.4E1,1E1,8.96E2,5E0,8.6E1,3.01E2,4.3E1,1E1,1E0,1.89E2,1.7E1,5.3E1,1E0,6E0,4E0,8.92E2,4E0,1E0,4E0,4.8E1,3.8E1,1.68E2,1.33E2,3.3E1,1E1,7E0,3E0,1.7E2,1.9E1,1.4E1,3E0,3.9E1,1.4E1,4E0,2E0,3.47E2,5.45E2,3E0,1E0],"tree_param":{"num_deleted":"0","num_feature":"47","num_nodes":"51","size_leaf_vector":"1"}},{"base_weights":[5.164656E-4,-2.0549426E-4,5.8103036E-2,-9.909188E-3,3.3701647E-3,-3.3569675E-2,9.978918E-2,-1.3344749E-2,1.0131954E-1,7.218148E-2,2.2293597E-3,1.7389799E-2,-8.177714E-2,5.799699E-2,1.6341572E-1,9.249479E-2,-1.697045E-2,2.5689775E-2,1.0345664E-1,1.2228996E-1,-5.6768578E-2,-7.027459E-2,3.1209318E-3,6.714821E-4,-3.1002171E-2,9.353876E-2,1.8712679E-2,4.635501E-3,5.8963146E-2,6.0030418E-3,6.568955E-2,-3.2362083E-3,-2.292066E-2,-2.1673108E-3,5.3224687E-2,6.498785E-2,7.3378626E-3,1.7191792E-2,-3.8439706E-2,-5.0571926E-2,1.563173E-2,-1.5277794E-3,3.592328E-3,3.3681788E-2,2.7904988E-3,-1.8559099E-3,1.3702155E-2],"categories":[],"categories_nodes":[],"categories_segments":[],"categories_sizes":[],"default_left":[0,0,0,0,0,0,0,0,0,0,0,0,0,0,0,0,0,0,0,0,0,0,0,0,0,0,0,0,0,0,0,0,0,0,0,0,0,0,0,0,0,0,0,0,0,0,0],"id":30,"left_children":[1,3,5,7,9,11,13,15,17,19,21,-1,23,25,27,29,31,33,-1,35,37,39,41,-1,-1,43,45,-1,-1,-1,-1,-1,-1,-1,-1,-1,-1,-1,-1,-1,-1,-1,-1,-1,-1,-1,-1],"loss_changes":[6.715588E-2,5.540997E-2,7.977952E-2,1.6566926E-1,9.1448925E-2,3.5629213E-2,2.7749687E-2,1.6197406E-1,2.3058206E-1,1.2971058E-1,7.4493565E-2,0E0,9.289607E-3,1.2211978E-2,2.1471888E-2,1.2395873E-1,1.4800188E-1,5.6214903E-2,0E0,1.2390675E-1,5.618749E-2,1.7720088E-1,8.2669124E-2,0E0,0E0,6.8461075E-3,4.3103993E-3,0E0,0E0,0E0,0E0,0E0,0E0,0E0,0E0,0E0,0E0,0E0,0E0,0E0,0E0,0E0,0E0,0E0,0E0,0E0,0E0],"parents":[2147483647,0,0,1,1,2,2,3,3,4,4,5,5,6,6,7,7,8,8,9,9,10,10,12,12,13,13,14,14,15,15,16,16,17,17,19,19,20,20,21,21,22,22,25,25,26,26],"right_children":[2,4,6,8,10,12,14,16,18,20,22,-1,24,26,28,30,32,34,-1,36,38,40,42,-1,-1,44,46,-1,-1,-1,-1,-1,-1,-1,-1,-1,-1,-1,-1,-1,-1,-1,-1,-1,-1,-1,-1],"split_conditions":[1E0,-1.222666E2,7.9E1,1E0,-1.2226558E2,3.784058E1,1.5912739E0,3.779756E1,6.214608E0,1.609438E0,-1.2226466E2,1.7389799E-2,1E0,2E2,6.931472E-1,2E0,-1.2226895E2,2.7E2,1.0345664E-1,3.784278E1,8.9E1,3.784219E1,3.780587E1,6.714821E-4,-3.1002171E-2,1.3862944E0,3.784008E1,4.635501E-3,5.8963146E-2,6.0030418E-3,6.568955E-2,-3.2362083E-3,-2.292066E-2,-2.1673108E-3,5.3224687E-2,6.498785E-2,7.3378626E-3,1.7191792E-2,-3.8439706E-2,-5.0571926E-2,1.563173E-2,-1.5277794E-3,3.592328E-3,3.3681788E-2,2.7904988E-3,-1.8559099E-3,1.3702155E-2],"split_indices":[39,6,2,36,6,4,8,4,11,9,6,0,32,2,9,3,6,2,0,4,2,4,4,0,0,0,4,0,0,0,0,0,0,0,0,0,0,0,0,0,0,0,0,0,0,0,0],"split_type":[0,0,0,0,0,0,0,0,0,0,0,0,0,0,0,0,0,0,0,0,0,0,0,0,0,0,0,0,0,0,0,0,0,0,0,0,0,0,0,0,0,0,0,0,0,0,0],"sum_hessian":[1.614E3,1.595E3,1.9E1,4.29E2,1.166E3,6E0,1.3E1,4.17E2,1.2E1,1.8E1,1.148E3,2E0,4E0,9E0,4E0,1.3E1,4.04E2,1E1,2E0,1.3E1,5E0,1.3E1,1.135E3,1E0,3E0,4E0,5E0,1E0,3E0,9E0,4E0,3.67E2,3.7E1,9E0,1E0,6E0,7E0,2E0,3E0,7E0,6E0,5.89E2,5.46E2,3E0,1E0,3E0,2E0],"tree_param":{"num_deleted":"0","num_feature":"47","num_nodes":"47","size_leaf_vector":"1"}},{"base_weights":[5.579187E-4,-1.3259914E-3,1.9380407E-2,5.0817896E-4,-5.1316902E-2,1.7477204E-1,4.2732097E-3,2.611005E-3,-3.9423056E-2,-7.33284E-2,4.84642E-2,1.0753644E-1,1.0891357E-1,-1.5808213E-1,1.4387034E-2,1.1115354E-2,-7.512856E-3,-5.8197156E-2,-2.7299767E-2,-9.627555E-2,8.422502E-2,1.4060089E-1,-1.2489104E-1,1.4264399E-1,-3.363164E-2,-4.9756765E-3,-5.277797E-2,-9.061614E-3,4.567454E-2,2.842682E-3,3.5364293E-2,-9.0960984E-4,-2.0145576E-2,-1.2671802E-2,1.8623916E-2,-2.4002763E-2,-7.781396E-2,4.83912E-2,-1.3986588E-2,5.1418424E-2,1.2723256E-2,-5.1452283E-2,-1.5654897E-2,4.9536236E-2,-5.575562E-3,-1.6509391E-2,1.3751508E-3,8.833737E-3,-1.38951605E-2,8.062184E-4,3.032629E-2],"categories":[],"categories_nodes":[],"categories_segments":[],"categories_sizes":[],"default_left":[0,0,0,0,0,0,0,0,0,0,0,0,0,0,0,0,0,0,0,0,0,0,0,0,0,0,0,0,0,0,0,0,0,0,0,0,0,0,0,0,0,0,0,0,0,0,0,0,0,0,0],"id":31,"left_children":[1,3,5,7,9,11,13,15,17,19,21,23,-1,25,27,29,31,-1,33,35,37,39,41,43,45,-1,-1,47,49,-1,-1,-1,-1,-1,-1,-1,-1,-1,-1,-1,-1,-1,-1,-1,-1,-1,-1,-1,-1,-1,-1],"loss_changes":[5.7293396E-2,1.347214E-1,3.4434038E-1,1.1917018E-1,1.17763E-1,1.2552196E-1,2.2394884E-1,1.1614205E-1,1.2774858E-1,1.6357115E-1,1.7728356E-1,5.9314057E-2,0E0,1.7281547E-2,9.432105E-2,1.2720829E-1,1.6441135E-1,0E0,9.20867E-2,8.006546E-2,6.803362E-2,1.3896555E-2,4.6078153E-3,3.568405E-2,2.7056488E-3,0E0,0E0,1.0752542E-1,1.3074112E-1,0E0,0E0,0E0,0E0,0E0,0E0,0E0,0E0,0E0,0E0,0E0,0E0,0E0,0E0,0E0,0E0,0E0,0E0,0E0,0E0,0E0,0E0],"parents":[2147483647,0,0,1,1,2,2,3,3,4,4,5,5,6,6,7,7,8,8,9,9,10,10,11,11,13,13,14,14,15,15,16,16,18,18,19,19,20,20,21,21,22,22,23,23,24,24,27,27,28,28],"right_children":[2,4,6,8,10,12,14,16,18,20,22,24,-1,26,28,30,32,-1,34,36,38,40,42,44,46,-1,-1,48,50,-1,-1,-1,-1,-1,-1,-1,-1,-1,-1,-1,-1,-1,-1,-1,-1,-1,-1,-1,-1,-1,-1],"split_conditions":[-1.221805E2,-1.2218747E2,-1.2217815E2,1.410987E0,1.609438E0,4.574711E0,2.2E1,1.3862944E0,-1.2229684E2,3.7795063E1,3.779149E1,2.0794415E0,1.0891357E-1,6.931472E-1,3.776416E1,-1.221888E2,-1.222016E2,-5.8197156E-2,3.784095E1,3.7791615E1,3.7829662E1,4.0775375E0,1.9459101E0,2.5649493E0,1.0986123E0,-4.9756765E-3,-5.277797E-2,3.775187E1,1E0,2.842682E-3,3.5364293E-2,-9.0960984E-4,-2.0145576E-2,-1.2671802E-2,1.8623916E-2,-2.4002763E-2,-7.781396E-2,4.83912E-2,-1.3986588E-2,5.1418424E-2,1.2723256E-2,-5.1452283E-2,-1.5654897E-2,4.9536236E-2,-5.575562E-3,-1.6509391E-2,1.3751508E-3,8.833737E-3,-1.38951605E-2,8.062184E-4,3.032629E-2],"split_indices":[6,6,6,10,0,12,2,7,6,4,4,12,0,7,4,6,6,0,4,4,4,11,0,7,0,0,0,4,13,0,0,0,0,0,0,0,0,0,0,0,0,0,0,0,0,0,0,0,0,0,0],"split_type":[0,0,0,0,0,0,0,0,0,0,0,0,0,0,0,0,0,0,0,0,0,0,0,0,0,0,0,0,0,0,0,0,0,0,0,0,0,0,0,0,0,0,0,0,0,0,0,0,0,0,0],"sum_hessian":[1.614E3,1.468E3,1.46E2,1.417E3,5.1E1,1.2E1,1.34E2,1.347E3,7E1,4.2E1,9E0,1E1,2E0,7E0,1.27E2,7.32E2,6.15E2,4E0,6.6E1,3.7E1,5E0,6E0,3E0,8E0,2E0,1E0,6E0,7.3E1,5.4E1,7.22E2,1E1,5.73E2,4.2E1,5.7E1,9E0,3.5E1,2E0,3E0,2E0,4E0,2E0,1E0,2E0,7E0,1E0,1E0,1E0,3.6E1,3.7E1,3.1E1,2.3E1],"tree_param":{"num_deleted":"0","num_feature":"47","num_nodes":"51","size_leaf_vector":"1"}},{"base_weights":[3.9086785E-4,-1.2528236E-4,7.566634E-2,-3.3509512E-3,9.409023E-3,1.5826917E-1,-1.9547543E-2,-2.6209496E-3,-9.966329E-2,-3.7878715E-2,1.6926698E-2,1.7647184E-2,7.143193E-2,-3.9129067E-2,1.1754013E-2,9.5369205E-2,-3.1970965E-3,6.3120894E-2,-1.6472194E-1,1.503294E-1,-5.524721E-2,4.2856574E-2,-6.874402E-4,-4.197836E-3,-2.095113E-2,5.500603E-2,7.051449E-3,-1.8850496E-2,-4.7851348E-4,1.0659099E-2,-5.9521552E-2,7.810164E-3,5.2468445E-2,-8.77091E-3,-5.2881833E-2,2.7242947E-2,3.983944E-3,-2.0625526E-3,4.1480765E-2],"categories":[],"categories_nodes":[],"categories_segments":[],"categories_sizes":[],"default_left":[0,0,0,0,0,0,0,0,0,0,0,0,0,0,0,0,0,0,0,0,0,0,0,0,0,0,0,0,0,0,0,0,0,0,0,0,0,0,0],"id":32,"left_children":[1,3,5,7,9,11,13,15,17,19,21,-1,-1,23,-1,25,27,-1,29,31,33,35,37,-1,-1,-1,-1,-1,-1,-1,-1,-1,-1,-1,-1,-1,-1,-1,-1],"loss_changes":[6.2757805E-2,4.939252E-2,8.960805E-2,8.410858E-2,1.4497167E-1,3.3630237E-2,8.432932E-3,6.76013E-2,2.1621042E-1,1.9136326E-1,1.6034254E-1,0E0,0E0,2.8822115E-3,0E0,3.9950825E-2,1.13213755E-1,0E0,6.101054E-2,1.0713659E-2,1.5854122E-1,2.0019293E-1,1.8151428E-1,0E0,0E0,0E0,0E0,0E0,0E0,0E0,0E0,0E0,0E0,0E0,0E0,0E0,0E0,0E0,0E0],"parents":[2147483647,0,0,1,1,2,2,3,3,4,4,5,5,6,6,7,7,8,8,9,9,10,10,13,13,15,15,16,16,18,18,19,19,20,20,21,21,22,22],"right_children":[2,4,6,8,10,12,14,16,18,20,22,-1,-1,24,-1,26,28,-1,30,32,34,36,38,-1,-1,-1,-1,-1,-1,-1,-1,-1,-1,-1,-1,-1,-1,-1,-1],"split_conditions":[1E0,6.214608E0,-7.3396915E-1,1E0,8.1E1,-2.4079456E0,6.214608E0,-1.2230102E2,1E0,7.0255384E0,-1.171183E0,1.7647184E-2,7.143193E-2,3.43E2,1.1754013E-2,9.2E1,-1.222964E2,6.3120894E-2,6.931472E-1,1E0,6.4E1,1.7917595E0,3.785139E1,-4.197836E-3,-2.095113E-2,5.500603E-2,7.051449E-3,-1.8850496E-2,-4.7851348E-4,1.0659099E-2,-5.9521552E-2,7.810164E-3,5.2468445E-2,-8.77091E-3,-5.2881833E-2,2.7242947E-2,3.983944E-3,-2.0625526E-3,4.1480765E-2],"split_indices":[21,11,10,43,2,10,11,6,2,11,10,0,0,2,0,2,6,0,7,2,2,7,4,0,0,0,0,0,0,0,0,0,0,0,0,0,0,0,0],"split_type":[0,0,0,0,0,0,0,0,0,0,0,0,0,0,0,0,0,0,0,0,0,0,0,0,0,0,0,0,0,0,0,0,0,0,0,0,0,0,0],"sum_hessian":[1.614E3,1.604E3,1E1,1.199E3,4.05E2,5E0,5E0,1.191E3,8E0,5.5E1,3.5E2,3E0,2E0,4E0,1E0,6E0,1.185E3,1E0,7E0,4E0,5.1E1,1.41E2,2.09E2,3E0,1E0,2E0,4E0,3E1,1.155E3,1E0,6E0,1E0,3E0,4.3E1,8E0,5.3E1,8.8E1,2.01E2,8E0],"tree_param":{"num_deleted":"0","num_feature":"47","num_nodes":"39","size_leaf_vector":"1"}},{"base_weights":[3.9876695E-4,6.9940026E-4,-9.6545026E-2,3.8546943E-3,-7.920846E-3,-3.551742E-2,-1.3739348E-3,-1.7674719E-3,3.530473E-2,-1.668479E-2,4.6693683E-2,3.3935062E-3,-5.6085728E-2,5.196852E-2,-6.475406E-2,-3.4617635E-3,-5.3754896E-2,-2.8166413E-2,9.398959E-2,2.4301635E-2,3.1055207E-4,-3.1080855E-2,-3.4443827E-3,1.3262616E-2,7.0802666E-2,-2.5152698E-2,9.655524E-3,-2.552878E-3,5.7520438E-2,-1.2183335E-2,-4.0971324E-2,-2.2232033E-2,2.18933E-2,3.4431055E-2,-3.1842828E-2],"categories":[],"categories_nodes":[],"categories_segments":[],"categories_sizes":[],"default_left":[0,0,0,0,0,0,0,0,0,0,0,0,0,0,0,0,0,0,0,0,0,0,0,0,0,0,0,0,0,0,0,0,0,0,0],"id":33,"left_children":[1,3,5,7,9,-1,-1,11,13,15,17,19,21,23,25,27,29,31,33,-1,-1,-1,-1,-1,-1,-1,-1,-1,-1,-1,-1,-1,-1,-1,-1],"loss_changes":[4.713594E-2,4.3848787E-2,9.503324E-3,2.0870683E-1,2.0755094E-1,0E0,0E0,2.8108636E-1,3.0182242E-1,1.8265066E-1,2.1508192E-1,1.67576E-1,1.8320486E-1,2.0949635E-1,5.0808847E-2,2.7357966E-1,1.0112846E-1,1.16926424E-1,1.6606009E-1,0E0,0E0,0E0,0E0,0E0,0E0,0E0,0E0,0E0,0E0,0E0,0E0,0E0,0E0,0E0,0E0],"parents":[2147483647,0,0,1,1,2,2,3,3,4,4,7,7,8,8,9,9,10,10,11,11,12,12,13,13,14,14,15,15,16,16,17,17,18,18],"right_children":[2,4,6,8,10,-1,-1,12,14,16,18,20,22,24,26,28,30,32,34,-1,-1,-1,-1,-1,-1,-1,-1,-1,-1,-1,-1,-1,-1,-1,-1],"split_conditions":[2E0,3.03E2,3.783702E1,2.51E2,4.7004805E0,-3.551742E-2,-1.3739348E-3,2.13E2,4.3438053E0,3.0910425E0,3.781206E1,-1.2229684E2,6.931472E-1,1E0,1.3862944E0,1E0,3.64E2,-1.2221016E2,6.331502E0,2.4301635E-2,3.1055207E-4,-3.1080855E-2,-3.4443827E-3,1.3262616E-2,7.0802666E-2,-2.5152698E-2,9.655524E-3,-2.552878E-3,5.7520438E-2,-1.2183335E-2,-4.0971324E-2,-2.2232033E-2,2.18933E-2,3.4431055E-2,-3.1842828E-2],"split_indices":[20,2,4,2,12,0,0,2,12,12,4,6,9,38,9,36,2,6,12,0,0,0,0,0,0,0,0,0,0,0,0,0,0,0,0],"split_type":[0,0,0,0,0,0,0,0,0,0,0,0,0,0,0,0,0,0,0,0,0,0,0,0,0,0,0,0,0,0,0,0,0,0,0],"sum_hessian":[1.614E3,1.61E3,4E0,1.179E3,4.31E2,3E0,1E0,1.001E3,1.78E2,3.72E2,5.9E1,9.15E2,8.6E1,1.53E2,2.5E1,2.75E2,9.7E1,2.3E1,3.6E1,2.6E1,8.89E2,4.1E1,4.5E1,1.48E2,5E0,2.1E1,4E0,2.69E2,6E0,8.5E1,1.2E1,1.6E1,7E0,3.3E1,3E0],"tree_param":{"num_deleted":"0","num_feature":"47","num_nodes":"35","size_leaf_vector":"1"}},{"base_weights":[2.951873E-4,5.991173E-4,-9.7690105E-2,3.1505415E-4,1.1464274E-1,1.7870022E-2,-4.55688E-2,1.1393408E-3,-3.7878077E-2,1.3752938E-2,4.815624E-2,4.217067E-4,5.6914307E-2,-1.4589017E-2,-2.0889878E-1,-1.3410636E-4,1.0541059E-2,2.198051E-2,-3.807192E-2,2.0045638E-2,-2.0856375E-2,-7.339702E-2,-1.5243745E-2],"categories":[],"categories_nodes":[],"categories_segments":[],"categories_sizes":[],"default_left":[0,0,0,0,0,0,0,0,0,0,0,0,0,0,0,0,0,0,0,0,0,0,0],"id":34,"left_children":[1,3,5,7,9,-1,-1,11,13,-1,-1,15,17,19,21,-1,-1,-1,-1,-1,-1,-1,-1],"loss_changes":[4.8154317E-2,5.2153185E-2,5.166919E-2,5.0666355E-2,5.266797E-3,0E0,0E0,6.301697E-2,1.3237137E-1,0E0,0E0,4.6941593E-2,6.942251E-2,1.432746E-1,1.0179743E-2,0E0,0E0,0E0,0E0,0E0,0E0,0E0,0E0],"parents":[2147483647,0,0,1,1,2,2,3,3,4,4,7,7,8,8,11,11,12,12,13,13,14,14],"right_children":[2,4,6,8,10,-1,-1,12,14,-1,-1,16,18,20,22,-1,-1,-1,-1,-1,-1,-1,-1],"split_conditions":[5.616771E0,5.2983174E0,3.6E2,3.8066626E0,1.9459101E0,1.7870022E-2,-4.55688E-2,-1.2214371E2,1.609438E0,1.3752938E-2,4.815624E-2,1E0,1E0,1E0,3.28E2,-1.3410636E-4,1.0541059E-2,2.198051E-2,-3.807192E-2,2.0045638E-2,-2.0856375E-2,-7.339702E-2,-1.5243745E-2],"split_indices":[7,7,2,7,0,0,0,6,0,0,0,16,36,26,2,0,0,0,0,0,0,0,0],"split_type":[0,0,0,0,0,0,0,0,0,0,0,0,0,0,0,0,0,0,0,0,0,0,0],"sum_hessian":[1.614E3,1.61E3,4E0,1.607E3,3E0,1E0,3E0,1.574E3,3.3E1,2E0,1E0,1.555E3,1.9E1,3E1,3E0,1.518E3,3.7E1,1.8E1,1E0,1.2E1,1.8E1,2E0,1E0],"tree_param":{"num_deleted":"0","num_feature":"47","num_nodes":"23","size_leaf_vector":"1"}},{"base_weights":[1.6880271E-4,1.0318637E-3,-2.9965369E-2,-9.522074E-3,3.4386746E-3,-4.0604517E-2,6.3268706E-2,4.40121E-3,-4.777828E-2,2.4466582E-2,-1.5374604E-3,-1.4811475E-2,-9.5019415E-2,2.2980154E-2,3.366344E-2,-4.9969833E-3,1.6380374E-1,-1.8096095E-2,-1.3295181E-1,1.1070684E-1,1.3722502E-2,-1.198445E-2,9.2192E-3,-4.27403E-2,1.8165145E-2,-5.9875727E-2,-4.7737136E-2,1.8485785E-4,9.068823E-3,-2.4763574E-3,6.480294E-2,7.39902E-2,-4.4563293E-4,-1.4385661E-2,2.4388537E-2,-4.683312E-2,4.605918E-2,-2.4356863E-2,4.4283032E-2,1.8861834E-2,-1.3122966E-3,-9.772201E-4,-1.5019579E-2,-2.3631135E-3,6.126264E-3,4.9957754E-3,-3.1264428E-2,2.4562659E-2,-1.1955625E-2,-3.8892985E-3,-3.125828E-2],"categories":[],"categories_nodes":[],"categories_segments":[],"categories_sizes":[],"default_left":[0,0,0,0,0,0,0,0,0,0,0,0,0,0,0,0,0,0,0,0,0,0,0,0,0,0,0,0,0,0,0,0,0,0,0,0,0,0,0,0,0,0,0,0,0,0,0,0,0,0,0],"id":35,"left_children":[1,3,5,7,9,11,13,15,17,19,21,23,25,27,-1,29,31,33,35,37,39,41,43,45,47,49,-1,-1,-1,-1,-1,-1,-1,-1,-1,-1,-1,-1,-1,-1,-1,-1,-1,-1,-1,-1,-1,-1,-1,-1,-1],"loss_changes":[4.2033244E-2,3.9938238E-2,4.72059E-2,1.5574469E-1,1.3397388E-1,5.6137167E-2,7.2805285E-3,3.2290912E-1,1.9478874E-1,2.2549105E-1,1.16530694E-1,2.7485333E-2,1.9759573E-2,6.298614E-4,0E0,1.4865054E-1,1.6465771E-1,1.7897691E-1,1.5665823E-1,2.0318761E-1,1.9506758E-1,1.7464414E-1,9.802075E-2,6.0153775E-2,5.501111E-2,1.9439638E-2,0E0,0E0,0E0,0E0,0E0,0E0,0E0,0E0,0E0,0E0,0E0,0E0,0E0,0E0,0E0,0E0,0E0,0E0,0E0,0E0,0E0,0E0,0E0,0E0,0E0],"parents":[2147483647,0,0,1,1,2,2,3,3,4,4,5,5,6,6,7,7,8,8,9,9,10,10,11,11,12,12,13,13,15,15,16,16,17,17,18,18,19,19,20,20,21,21,22,22,23,23,24,24,25,25],"right_children":[2,4,6,8,10,12,14,16,18,20,22,24,26,28,-1,30,32,34,36,38,40,42,44,46,48,50,-1,-1,-1,-1,-1,-1,-1,-1,-1,-1,-1,-1,-1,-1,-1,-1,-1,-1,-1,-1,-1,-1,-1,-1,-1],"split_conditions":[1E0,1E0,4.7004805E0,2.78E2,1E0,3.782435E1,3.78246E1,2.7E2,3.781648E1,1E0,1E0,-1.4271164E0,1.0986123E0,1E0,3.366344E-2,1E0,1E0,3.780322E1,-1.2220811E2,1E0,1E0,1E0,-1.2225735E2,-2.207275E0,-8.915981E-1,2.68E2,-4.7737136E-2,1.8485785E-4,9.068823E-3,-2.4763574E-3,6.480294E-2,7.39902E-2,-4.4563293E-4,-1.4385661E-2,2.4388537E-2,-4.683312E-2,4.605918E-2,-2.4356863E-2,4.4283032E-2,1.8861834E-2,-1.3122966E-3,-9.772201E-4,-1.5019579E-2,-2.3631135E-3,6.126264E-3,4.9957754E-3,-3.1264428E-2,2.4562659E-2,-1.1955625E-2,-3.8892985E-3,-3.125828E-2],"split_indices":[31,25,12,2,18,4,4,2,4,22,13,10,0,1,0,28,20,4,6,3,26,17,6,10,10,2,0,0,0,0,0,0,0,0,0,0,0,0,0,0,0,0,0,0,0,0,0,0,0,0,0],"split_type":[0,0,0,0,